-4.355484401200887361e-03,3.401935896116113633e-02,2.765354753045043412e-02,3.546749053333463075e-02,-1.251054971318076026e-02,-1.854303580469883472e-02,5.393454170360578726e-03,7.112519053333214887e-03,6.661269196086009453e-03,-1.327729783240163414e-03,-2.028868443142216316e-02,1.203081359817944652e-02,-6.503138703924539465e-02,-2.284858650783810202e-02,2.137030796945393538e-02,-4.204274659524841889e-02,-2.481599645851268951e-02,9.995239889911196329e-03,-5.643973814213773532e-02,-1.382303154104673991e-02,-6.451231469448362454e-02,3.839020246964477794e-03,-6.037296107875861177e-03,1.317745163129240352e-02,-6.718755412518925135e-03,-3.158381891098410808e-03,-3.588879645964556525e-02,-2.268441068178074158e-02,-4.351414647467592191e-03,3.511148635831847636e-02,3.622716833668933323e-02,1.246727306007254857e-02,-1.104080756080799697e-02,-3.240642999880885555e-02,-1.302460255355329666e-02,-6.615468117995550179e-02,-1.838128825477866601e-02,8.683568945224422186e-03,2.582549315516187438e-02,2.481297195171859940e-02,1.211668589478259554e-02,-2.278461426514900162e-02,1.507578114135108352e-02,4.447415024615227613e-02,2.393503219392372622e-02,1.040747127877909295e-01,2.205570073772957287e-02,-3.709685895814925777e-02,2.224866824195464304e-02,-4.061020857206727036e-02,3.431705744320065476e-02,-4.606037727695307116e-02,-1.126880435395306336e-02,-9.056905394633541634e-03,-1.311645242282389115e-02,1.158682585379440175e-02,-5.146704736023634263e-02,-4.083034418563194490e-02,-1.808332681083048982e-02,2.048819702218373714e-02,3.910320601842819099e-02,4.738275103042529496e-02,4.164574320279337827e-02,4.283247371695315595e-03,-4.565158482112298410e-02,4.753279909755556143e-02,-1.127300952232297877e-02,1.025803551024901533e-02,6.828583226210673505e-03,1.477560519788930458e-02,2.295458991316927030e-02,3.106652669095652866e-02,-7.261408770172401994e-02,-4.113315761131798587e-02,5.874378446823193267e-02,2.600971301996504378e-02,8.235138646846901916e-03,4.289152649184066815e-03,-8.012589689629005460e-03,-2.258895044514420969e-02,-2.843630481257225159e-02,-9.447663220989145627e-03,-9.564413731071321444e-04,2.753502181687657660e-02,1.630188786471036336e-02,3.148214829512192836e-02,2.102504862579487183e-02,3.594762844331720469e-03,-4.102111142048368159e-02,3.954895305330164562e-02,1.239796209300219818e-02,-1.521006890047933713e-02,6.895397947962585150e-02,7.261865727610505861e-02,-5.728976882170310099e-03,4.010194685621475130e-02,-4.196607871767728259e-02,-8.219106239035595465e-03,-3.583313863988382003e-03,-3.849305672768542352e-02,1.605951065610924933e-02,-5.993010554127586181e-02,-2.200196825678503443e-02,-1.469275983833920503e-02,-3.934143462309133699e-02,-8.576956579768183278e-03,-2.225542316575464946e-02,2.344822136639351448e-02,1.712525625755103101e-02,1.027028489760273625e-02,-8.659204973493254964e-03,2.459767700527759962e-02,-2.647853779893525467e-02,6.474967823249294652e-02,5.700819666679616399e-02,1.024989805455116601e-02,1.425719050150494813e-02,4.878648066237505250e-03,2.483881277444645666e-02,-5.126237922783322132e-02,-5.681697070760002161e-02,-7.223993361529083834e-02,-3.540828291837928160e-03,-8.221191665328086984e-03,-8.209200139979583311e-02,-6.375318216738209975e-02,1.518808822586556473e-02,-7.737111891009485452e-03,4.769934405361162671e-02,5.431750416142687443e-02,-2.059665467922361728e-02,-9.095861498486776386e-03,-3.645243687792501519e-02,3.954144111631391345e-02,3.666118509235882089e-02,4.619907762479904395e-02,3.283903018090562204e-02,9.622402450623727954e-03,-1.268987283445791210e-03,-6.421357725501845165e-03,-1.576058766618927687e-02,3.740153143838086808e-03,4.890934902236843823e-03,5.646430976218204389e-03,7.726728358382479490e-03,-9.394906209944525743e-02,-1.483833650267859239e-01,-9.096727461140716176e-02,-5.729948314672832915e-02,7.939640712733909197e-04,1.929444852923034581e-02,2.416523268130991303e-02,3.362302371389602751e-02,1.360794594178764763e-02,6.782123292219298383e-02,-2.442315408668959548e-02,2.159948169737881812e-03,9.224688333777111837e-02,1.013151361139087193e-02,-4.892837769404288079e-02,3.269849864985644589e-02,4.071942967485438214e-02,9.860438980666516584e-02,-2.569616905369367238e-02,3.706352851654754615e-02,-1.765580078446732371e-02,-1.701317456592052121e-02,7.054755438167048531e-02,-1.010713584888429419e-02,-1.910810308014024642e-02,-3.125924671452243869e-02,-8.669791556307124281e-02,-1.388037462030611013e-01,-8.419727429572076982e-02,-1.508455198371995154e-01,8.069891339063725924e-03,-9.247131083893501968e-04,-2.125959537206431951e-02,-3.202028834392128126e-02,-2.413193875195786611e-02,5.341440892108342137e-02,7.915689139602995889e-03,7.252880157343909173e-02,6.293054191512845175e-02,3.326064585618081215e-02,2.252515145533105084e-02,-6.629231521838213625e-02,5.585467958078575018e-02,-1.635142780019190317e-03,4.165108447436924322e-02,2.416126184406813815e-02,7.183530465591335401e-02,5.021093193501102725e-02,-5.201168369408742248e-03,-3.663887749988947035e-03,-4.326300518702750481e-02,-3.618862214693521762e-02,-6.253262038412892541e-03,-3.457948140636077361e-02,-3.687211405954665677e-02,-1.073076704382120716e-01,-6.747987110977869685e-02,-7.838690823814004061e-02,-3.494687092976483250e-02,-3.133889995179463955e-02,-3.222682725267945331e-02,1.887307175962505204e-02,-1.601494049311644879e-02,-3.759861861072733014e-02,7.765279272534689192e-03,6.521877803876349744e-02,4.220276945357137599e-02,-7.185967751050357025e-03,-6.947441949149486817e-03,5.073039199763183793e-02,-2.087548837681667616e-02,-4.222220475806996720e-02,2.892782475633843761e-02,4.713790129170186693e-02,1.291464534050118795e-01,3.604718180131002980e-02,1.160654002663629863e-01,2.220643909897889942e-02,-1.942261883281533666e-02,-2.155907464520820035e-02,6.841508261189453710e-02,-3.414359982449387959e-02,-5.045904569804226386e-02,-1.261400633030916041e-01,-1.362406337829130121e-01,-6.675571502189324435e-02,-3.490373312106675313e-02,2.504113431630464875e-02,2.017058139976223366e-02,-4.440237465846734108e-03,-1.219804863202065062e-02,7.784328866058917717e-02,1.819528860908089379e-02,-3.956280541206502743e-02,-1.474158878814357809e-02,-2.562472705373831493e-03,-6.479109554981374308e-02,-7.142378870831291027e-02,1.314150906280429562e-02,-1.398865671055051635e-02,-2.095740241108479812e-02,5.481493238555055353e-02,9.184726721147654094e-02,1.254796903467498281e-01,3.963307581651095979e-02,1.280689082244917260e-02,2.406666457309624210e-02,-7.098547175477692983e-02,2.063070107592925376e-02,3.955953969059405884e-02,-7.860189663229396814e-03,4.968407772878408180e-03,-5.228213919116808661e-02,-3.157765189188778410e-02,-1.097616559619226870e-02,-9.241147443436485351e-03,5.056608391069774416e-02,1.112349523752242803e-01,7.044003620835563584e-02,7.881073605952060301e-02,1.933091520410962216e-02,-1.125892900782489020e-01,-1.246742846612470257e-01,-1.120316997114014224e-01,-9.557664170332290376e-02,-1.225865319675947807e-01,-7.765074080227499231e-02,-4.307541022364167610e-02,1.228485038194886136e-02,1.917625814169539311e-02,9.226495672688629635e-02,1.721159508155199747e-01,2.849848862804924346e-02,2.463765739702724125e-02,-8.396947818025281285e-03,2.261954123017010168e-02,6.015026711054622006e-03,9.590951879494076515e-02,-2.351051352922937931e-02,2.868577933921073048e-02,-5.320198068287886745e-02,6.550269306750042264e-02,6.616276166914002166e-02,2.248254563661927774e-02,6.559029874282167050e-02,1.200329392730127287e-01,1.198787615050536520e-01,1.084540748084294598e-01,6.599598728286498739e-02,-4.498349057912826889e-03,-1.334800118205461961e-01,-1.386283002083509297e-01,-8.096382595857815057e-02,-2.794417219553411297e-02,-7.524934835435784231e-02,-3.534352353102348382e-02,-1.116332227284718842e-01,-6.734589695616639837e-02,8.055977807853929862e-02,1.259421329887300545e-01,6.972980586397699299e-02,2.513410466213914472e-03,-3.589003030143742001e-02,3.537660799492808178e-02,1.348049105226756250e-02,-6.394919399034948437e-02,-2.561817084404437173e-02,-1.035754909677622376e-01,-2.010223775890201264e-02,1.651262819201465689e-03,5.632749602433229780e-02,1.006497644043563844e-01,3.180377522972930443e-02,2.380165484327527448e-02,-3.070370700570055483e-02,-3.254081906842147542e-02,-9.125825761241799366e-04,-4.314290685392997704e-02,-1.276652077191856582e-01,-7.451366956275970455e-02,-1.352272045927822852e-01,-8.998278939645215635e-02,-6.272670602485327929e-02,-6.707873002014193287e-02,1.621089256110774812e-02,-7.937197729915647371e-02,7.280221152523222439e-02,9.834111223634264820e-02,4.090068140249052478e-03,7.546181951897203144e-02,-3.066206739578122148e-02,-7.105462350595211085e-02,3.615581604030471130e-02,1.836957607113466617e-02,3.275037552693178811e-02,-9.209161621062927905e-02,-6.656434360947310891e-02,-2.319051984664212418e-02,6.724659835731390534e-02,-2.629777671313890050e-02,-6.055621192673988490e-02,-5.282279132782295716e-02,-5.067859499014953223e-02,-4.467494183742516667e-02,7.601934107659382572e-03,-1.015668428718274341e-01,-5.305032954976225679e-02,-1.023088643793533259e-01,-5.153749308766476106e-02,-2.903355552923228555e-02,1.778206409753405742e-02,-3.889686101747574093e-02,1.372155013754328525e-03,-4.367265472760626516e-02,-2.311385181675428609e-03,-2.427502801879802968e-02,-9.591086675099136285e-04,3.225171410468354039e-02,-2.596397299177835918e-02,7.628487332748754013e-02,5.716926055822650100e-03,-2.565612827854674149e-02,1.759756951611634451e-02,3.175448989348115397e-02,3.362350874678762119e-02,-1.175180282762973080e-02,-3.936665659565383169e-02,-3.145772922907308367e-02,-1.941505205442475845e-02,7.258428048480322636e-02,6.066219329537498456e-02,5.105677004183314244e-02,-1.354291041150388480e-02,-1.065052939077282268e-01,-4.911995758800665607e-02,-5.075976300999078539e-02,-6.954402913574765643e-02,-4.548758332894219797e-02,-3.322628502589825700e-02,9.090295466026966989e-04,-1.716402168206029172e-02,-4.314418101577234890e-03,6.298675442219403564e-02,1.851346251709217600e-02,7.932642602696626799e-02,9.037319716753323962e-02,2.060125932744443986e-02,1.495109224789964615e-02,2.637803595736749190e-02,-1.799667470478976544e-02,-2.152014887920670853e-03,2.972177337583933182e-02,-3.018935054847767321e-02,-3.623212158088648382e-02,2.855182346063545040e-02,5.456740098742769718e-02,2.320205145386904783e-02,5.990490006561150632e-02,1.119623002900651115e-01,6.130722642839876724e-02,-7.095463703269933031e-02,-1.420600353646144509e-01,-1.287452304689231386e-01,-1.366937195423376453e-02,-1.323036919435894021e-01,-9.382016608765668397e-02,-8.394988367538519514e-02,-7.958283367334505198e-02,-7.829053176004759085e-02,-3.944674650535515137e-02,-1.464231608285904498e-02,1.770315375198296820e-02,-3.770296261638041851e-02,3.201946550064256602e-02,1.846103614926083991e-02,-5.632784159410696850e-02,-1.003497220127176279e-02,-7.262812183805796018e-02,-4.937961107042140863e-02,-5.687159891102212123e-02,9.032338012372043493e-03,1.511439505486940338e-02,-1.257950860043878342e-02,2.712746170657929015e-02,1.053205337642208056e-02,2.675970823073440044e-02,-2.447925530134618249e-02,5.169012806853484632e-02,-2.210779125597638062e-02,-1.340463758787378556e-01,-5.009116429034415202e-02,-1.522032418541878485e-02,-1.096395926078515548e-01,-2.009777485371535763e-02,-6.171702501680824404e-02,-7.834725343450230084e-02,-3.173452216913287549e-02,-8.684205011586421108e-02,6.078479760369360357e-02,9.351851808018767087e-02,8.976208088801694573e-02,2.848283444909414930e-02,-1.051692098066969554e-02,1.981887077143343681e-02,1.688876257152906873e-02,4.296383634368850651e-02,-2.083290071232444390e-02,1.734852614930620235e-02,2.806951963753308993e-02,9.233036014281718884e-02,8.322563972082440420e-02,5.300398089495417242e-02,2.922532035193613556e-02,5.790989142176557192e-02,6.909167281381941098e-03,-3.646907358396989790e-02,-7.043711464772599122e-03,-1.529766956217335772e-01,-1.990722478279108310e-02,1.259331783994923140e-02,-1.100516097998461978e-01,-8.350433840689520937e-02,-8.346878677508252908e-02,-3.920233928287173569e-02,-1.069723503292935723e-01,-3.532452630372151514e-02,7.193820139085312787e-03,1.066123315245236791e-01,4.700284045142726075e-02,3.001172726416309784e-03,-1.878560191267992716e-02,-4.197631449202946820e-03,1.402478245019630858e-03,2.024943073165774623e-03,-6.332605051120054895e-02,2.896361755119432335e-02,1.193416898254749670e-01,1.554804913945052325e-01,7.723787041058577385e-02,2.171911380309217710e-01,2.618882661987978477e-01,1.434413436046141077e-01,1.434506408990523507e-01,9.578112567529109556e-02,-2.117996429391293817e-02,-5.008775047235557165e-02,-2.816126346068845848e-02,-6.516701492505665161e-02,-1.236072224821793408e-01,-3.372196780441592129e-02,5.612135300722515679e-02,-4.624994077913385099e-02,3.646603516342783197e-03,-4.621735593516829860e-02,4.376378081761149452e-02,8.080024456829826285e-02,1.695105034407862754e-01,4.829992533009728334e-03,3.462930293732488507e-02,1.802729733776779059e-02,-3.652541488798725922e-02,1.002085642502325950e-02,-9.571893239472946402e-02,-7.395700679377668896e-02,5.990945078779229271e-02,1.408290344101610081e-01,2.082129987210426525e-01,2.117572640508842696e-01,3.162241392580579791e-01,2.757604781559505058e-01,2.794517588183606516e-01,2.315222641560850392e-01,6.293413990515388245e-02,5.123127155533474877e-03,5.159305807388716442e-02,6.030395842792987682e-02,7.454191730948267480e-02,5.671680547144794526e-02,9.284341131345286158e-02,-9.697015418810538134e-03,-3.021812794446533321e-02,3.066331488784656764e-02,5.510231822403957591e-02,1.726619730342767167e-01,3.272595646216434895e-02,-7.976097733043276822e-03,7.035112627039262490e-02,-2.806026790196258780e-03,-2.019322503637518626e-02,-2.450206892671781891e-02,-6.231536930403815816e-02,2.162659142665678338e-02,5.520145286714236293e-02,3.682868036355193414e-02,2.967521772724802248e-02,3.586773984742239185e-02,1.025300396701798594e-01,2.114366992561500513e-01,2.386732245014961118e-01,3.211142087115381183e-01,1.639603579404032840e-01,6.606452969970375011e-02,2.032910127502716296e-02,5.808356528854952128e-02,7.958994794775396675e-02,3.748201419509703675e-02,2.048229875617060824e-02,1.540982444905240195e-02,8.052212190330639008e-02,9.224422064840237523e-02,1.073233119280891656e-01,8.578173737080935224e-02,-4.180581207725131421e-02,1.083557877024078804e-02,8.619504208375552978e-02,2.789691049816515889e-02,8.425162699958896328e-03,-6.083310140827388052e-02,-2.132311895473108093e-02,-7.359976733104872659e-02,2.895698842313149460e-02,-4.852369596636829825e-03,3.303033551559241693e-02,-4.025893862690894942e-02,-4.835434516543417327e-02,-1.472010234089169214e-02,5.062375325622103100e-02,1.675527895838868908e-01,7.780480498877527518e-02,3.814718860612160978e-02,2.021582858042523037e-02,-3.028519967243027342e-03,-1.509426869972952875e-02,-3.000615031043976297e-03,5.305498079916393800e-02,-1.994408467922834799e-02,3.906575453261327407e-02,1.126503391083180511e-01,8.292440317374852321e-02,1.470474844958591099e-01,3.683351494787599767e-02,-1.491117205344779165e-02,2.896257567157655213e-02,-5.242044834550588228e-02,-4.863358068148963820e-02,4.115983700531828868e-03,-1.286242521459327395e-02,1.948978190736058366e-02,-1.137980439373301525e-02,-1.294288467008915082e-02,-4.684857018049142646e-03,3.707179039676823662e-02,7.653341470504190780e-02,-1.852381238119445855e-02,2.837245662802955967e-02,1.056822110496489359e-02,8.799399413638516951e-03,6.932041289738161138e-02,2.279404584000421785e-02,1.404220913829196463e-02,3.988824997997700988e-02,-2.196058846424785854e-02,3.790514537444975712e-02,5.343769049278838945e-02,8.863527242428440034e-02,1.322773595395607682e-01,1.159151139047982088e-01,1.255633177027696244e-02,1.252197578410490370e-02,-4.258991953576335247e-03,-1.898160961622676057e-02,-6.341203271861196866e-03,2.052827837321643742e-02,-7.726631217588436629e-02,-4.758219050283209184e-02,-5.584959902680862454e-02,2.778736719603708185e-03,5.466731811852328787e-02,2.800938297079183861e-02,6.926796488952445541e-02,-4.122001728609336890e-02,-1.001519564368653220e-02,4.828504074834838455e-02,8.178056433290302463e-02,5.717778618157929454e-02,1.142436094449832962e-01,-2.744495747818238851e-02,4.862185499997655203e-02,-7.551294434417795201e-03,-7.365344273603247928e-03,-3.002376999537817795e-02,5.570898482086188847e-02,7.560426464740314934e-02,6.437512735702630162e-02,4.486491583017886836e-02,2.044005026524240223e-02,-3.004747975239297278e-02,5.248489343092230253e-03,-2.127842016777282269e-02,3.265359749710509962e-02,4.042106895742215988e-02,5.612955431565197495e-02,-9.743190465492377814e-03,1.020080433743002918e-02,-3.063608971545465562e-02,-7.373966868009203257e-02,-2.599527536988447893e-02,3.798286086218044533e-02,7.764803199785916266e-02,5.541678177664730726e-02,4.738525148018735839e-02,7.410867129755013827e-02,5.418731007799165722e-02,5.422563711743432630e-02,8.552450793620745839e-02,3.162660629890338970e-02,2.556086595474115278e-02,2.456197111456722565e-03,2.799553154776203770e-02,7.482231771854944147e-02,6.761312029600100026e-02,-3.563253123367287473e-03,-5.987548208465365979e-02,7.254337492580457784e-03,-8.659225611907428802e-03,8.367989181196618109e-02,-6.262707275115825256e-03,-3.248771167011746397e-02,-9.318912049091540237e-03,-2.282305451421651199e-02,-2.546204509543664469e-03,-3.462824592217961239e-02,-6.272372030681590271e-02,-6.518273525320210371e-02,-1.307105509527029807e-01,-8.878058517692662133e-02,-4.719290238421421785e-02,-2.262722686556653193e-02,3.555944060144108909e-02,-3.678088938324575521e-04,6.483478240948746529e-02,-9.693167017490345039e-03,5.419432075267683474e-02,-8.349219396814558380e-03,5.733421667465404131e-02,7.673802162516868419e-02,7.761580489434997954e-02,5.209908374690394237e-03,3.440580235614177414e-03,2.674923085193036884e-02,-4.167910369441066298e-02,1.749726415034275756e-02,4.494035225223388247e-02,4.153588645186837708e-02,-3.008228866524878878e-02,-3.357743502586499340e-02,-1.622230059631304564e-03,-5.288304492493733217e-02,3.622041078915833046e-02,-3.362257361731724181e-02,-1.304551045934337072e-01,-4.753019670852539486e-02,-7.003193160088465319e-02,-1.944441696983524315e-01,-8.054584403655085101e-02,-7.586495238833448895e-02,-6.355777978542781481e-02,-5.217270268523994947e-02,-3.567039899546835952e-02,6.537024675704226906e-02,9.421801799066603297e-03,3.361233988663882982e-02,9.004194281379442055e-02,-4.139766543935285981e-02,2.929286191244280524e-02,-2.965529440265866554e-02,8.218016873666121949e-03,4.266946551351982926e-03,1.639013087562408294e-02,-7.851195750080432190e-02,-3.527294908680124463e-02,-1.360250661308884564e-02,9.285600189257006698e-02,2.456377022332781324e-02,3.743098498161879367e-02,2.530917345164234236e-02,4.956507261009648196e-02,-4.026526596949774051e-02,-3.073617343397131579e-02,-4.523288461429066792e-02,-2.098431260072862112e-02,-5.701336341303776117e-02,2.224408632818428502e-02,-4.834222092653521485e-02,-6.091510186328921543e-03,-5.335758235722944109e-03,-1.303143962565735461e-02,-4.141322138400528596e-02,-7.614662456824707049e-02,-2.312593649615036703e-02,-4.097143577189374386e-02,-3.322703522136920273e-02,-3.500262508142790076e-03,1.474970235017448311e-02,5.112299376577119497e-02,1.710894152337120305e-02,5.189128504147330623e-02,5.268504476788526958e-02,-5.605986265588874980e-03,-5.269664282653923129e-03,8.897556884227407481e-03,-1.119533602020868560e-02,-2.174396776390483468e-02,-3.353334047310653487e-02,-2.123080027455091778e-02,2.245989675431605756e-02,-3.325580929820430576e-02,6.867072092724053889e-02,2.383228809787736949e-02,-1.610712055932507145e-02,1.880669189775327835e-02,-4.777380526924166620e-02,5.354377185421424490e-02,2.527412866924102358e-02,-3.588008335863455273e-02,-7.271046491258671696e-02,3.979598105927861784e-02,-1.475819167214101682e-02,-3.487103970396802921e-02,-4.838578620570167105e-02,4.356471989069550521e-02,-2.843978280098961864e-02,1.371420106977013637e-02,-4.641053296422837510e-02,-3.217128128194147313e-02,-6.677161976422045508e-02,6.904032758808653115e-03,-1.167012337123351194e-02,4.226239846126463029e-02
-5.044142474061311630e-03,-1.343184486682699914e-02,-5.093407055099869601e-02,-9.274436017345696892e-02,-4.110854959203017606e-02,7.126272320164286911e-02,-5.028994611713176813e-03,2.725759061760164859e-02,3.302714175527612234e-02,-4.041205309732498474e-02,-3.351334038015445910e-02,-6.732480794943279667e-02,-4.472107256842078327e-02,5.299930888556426273e-02,3.170807331106611365e-02,3.322823256763935557e-02,2.028778950935315392e-02,-3.747379790598923122e-02,-5.164269613288545793e-03,1.160352782076437593e-03,4.636282377624546813e-02,2.764960757574156866e-02,-2.098702262011649042e-02,-5.818549666638796192e-02,2.891998999437890919e-02,1.042350347745758625e-02,4.985355487376267464e-02,-2.226619224617006412e-02,4.605221986549229429e-02,-6.224446476123494595e-03,1.168548279198311501e-02,-3.286397552525774368e-02,-1.651736733208377175e-02,-8.296487558919918986e-03,-2.343366596114374034e-02,4.839171430852395872e-02,-3.489254952778324259e-02,4.743782562882318393e-02,5.704999071913033348e-02,1.350492384974686256e-03,2.253419228523605850e-02,6.104851949556410612e-02,2.501148692806302865e-02,1.203432839965715671e-02,4.561487633020619437e-02,4.455044459175672156e-02,-2.910824728068509004e-02,5.387851129692384361e-03,5.110375450641977541e-02,3.492238768663898790e-02,3.032922979078403122e-02,7.254582172726356526e-03,1.351914308840506361e-02,2.082106158880914909e-02,-1.313546559697843438e-02,-2.521692608415330994e-02,1.344914799298977705e-02,-1.146778249288090898e-02,3.530900117926190351e-02,-3.848292735657841968e-02,-1.121917859843032592e-02,-2.625215759933812940e-02,2.301080647990218610e-04,3.935951182465646792e-02,-3.512085001466935374e-03,2.794345325391111093e-02,3.039167876353757874e-02,1.149804295235802853e-01,1.389288786997976664e-02,6.816527035536747159e-02,2.682333058802234549e-02,3.342694767641773285e-02,1.922059262135060800e-02,-1.431776272972644891e-02,4.421855214300986908e-02,1.450795617106460066e-02,2.096693174683823824e-02,4.935171854192060142e-02,1.823574322291105377e-03,-8.369349583075040566e-02,-4.223040472787435023e-02,3.371828588392835474e-02,-3.598700554520055557e-03,-3.668573165071567152e-03,-4.096558086093220370e-03,1.726754544412514858e-02,2.043977941356097880e-03,3.295484453977690076e-02,3.944933743768708895e-02,6.642322775587476170e-03,9.964459146052364810e-04,-4.035078660373567910e-02,1.006745043733021927e-01,5.993015447042671778e-02,5.400092471777386688e-02,3.074733098378624671e-02,3.424006228360118587e-02,1.155488761301794176e-01,1.142399207092438806e-01,8.655963244352493646e-02,1.827602318939402018e-02,8.506311843121254490e-02,3.602422329409128016e-02,6.046053714631643809e-03,1.611181518006920763e-02,1.034594395160274988e-01,8.063197857051744924e-03,-3.039636242243346290e-02,-2.695909276320292147e-02,8.817997681779612962e-03,6.979039865243563678e-02,-2.324801456365997027e-02,-1.640608108320143824e-02,2.593130424992637698e-02,2.703833232549646484e-02,-6.071896648457732887e-02,-6.398297435707180243e-03,-1.502591046357813591e-02,1.361930734762021623e-02,4.813691262308398416e-02,9.485833721205978730e-02,4.126820111547054026e-02,-9.711389473840400036e-03,8.124038760277782489e-02,1.093755025030466455e-01,6.972218877781345692e-02,1.526771344523174256e-01,1.361267117277371597e-01,1.507900369098268689e-01,8.352225137559161905e-02,9.900716891645855444e-02,4.598487897244762923e-02,-4.719820228616088131e-02,-2.976531072871296119e-02,-5.202878843692388539e-02,9.509142722639123829e-03,-4.364877126399561297e-02,-2.240579821035718067e-02,4.811512722765513665e-03,-3.574738404357409582e-02,5.003675870574725293e-02,7.157412284210272480e-02,1.216960604599376904e-02,-2.046987067600196039e-02,-6.585522309484545533e-02,-1.532462891675130841e-02,1.795043621675014231e-02,5.301357885869749376e-02,-1.167179112325514648e-02,5.289842810778106613e-02,3.683247881438753146e-02,1.487884973102608123e-02,5.200295013978825653e-02,4.703129725451112020e-02,5.999793631804532790e-02,1.018349316431134272e-01,7.238715826992969671e-02,7.765713180848671238e-02,3.359306913676131379e-02,-2.921816875130804451e-03,-2.462623462647252348e-02,3.226633791494472325e-02,-1.571926432708008539e-02,-4.236432908289318455e-02,-4.374744595110967998e-02,-5.022276901339719352e-02,2.933361831022075414e-02,-6.949237162088671080e-03,-1.348089827057192581e-02,2.315256753445614490e-02,4.494854131434954103e-02,2.074766790741491840e-02,-2.328600202764180560e-02,1.534589681601713183e-02,3.227086682402379586e-02,4.267896161497954088e-02,7.596266587051457575e-02,-3.610871492326886596e-03,1.413355547078815229e-03,4.002530270024868414e-02,-9.951887405542559142e-03,1.885235130785149760e-02,-6.183553350734484477e-02,-3.274498306256787283e-02,1.491878526597847573e-02,-3.188163831414653898e-02,-8.322130869565003836e-03,9.944120346513566841e-03,3.749204348258362851e-02,-1.678418769535575464e-02,-4.708085372300493260e-02,-4.239295270564683721e-02,-9.881782511405466651e-02,-9.546929822953151290e-02,-2.020716760408665727e-02,5.475769923606816497e-02,-1.851158235137465372e-02,-3.892304638757315000e-02,4.929013757195846446e-02,-6.455033272156031343e-02,5.729438763104331006e-02,9.954266705225265147e-03,6.410316030751626870e-02,4.472480911339144632e-02,4.791698076593847028e-02,4.704005000146273957e-02,-1.944965215184237288e-03,-3.489098182093335575e-03,-4.237640771939527734e-02,-6.252779892283173713e-02,-6.847840611281326428e-02,6.071493815769294505e-02,-9.686347336230791139e-02,1.824108171743157869e-02,-1.092646454500663944e-01,-4.251062722387833476e-03,1.582929522670346173e-02,-7.071378785135211398e-02,-4.482969484263146787e-02,3.943098259022091885e-03,-5.072280106058544430e-02,-5.134418705489759288e-02,-7.379065032432803595e-02,4.495705188325882506e-02,-6.461632862216623585e-02,2.886691432559057233e-02,-3.220948411231296798e-02,4.495650521316057330e-02,2.493755595801052521e-02,4.342149564141653539e-02,8.155313081829911048e-02,2.175787676082458280e-02,2.618850348701331696e-02,7.479999304838620688e-02,1.232803678107249196e-02,9.835125554019592820e-02,5.274349025803213437e-02,6.210745233118475199e-04,-2.302826422059647479e-02,-1.533210436971239182e-02,-2.579078511363284455e-03,3.769459915044830189e-02,-1.428330341466523684e-03,1.604610410637921994e-02,6.935845147867256144e-02,2.442816849608136012e-02,5.533169254923848979e-02,2.161367116478147415e-03,-4.370343916244452676e-02,1.618179924025730035e-02,2.736540146225595674e-02,-5.086490155023751930e-02,6.030944719222142147e-02,-1.382954343885544994e-02,3.594354515729791463e-03,1.373754042546840130e-02,8.469547299969838738e-02,5.079012204098052458e-02,4.875739374248631679e-03,3.500597681357991986e-02,7.495095667834520553e-03,1.330277058459366016e-02,-5.351684381521816525e-02,-2.341150219046822523e-02,1.451876629325079063e-02,5.894839082817778658e-02,8.168108095529905133e-02,3.789781640783464883e-02,2.194035436921679127e-02,5.965462703691306462e-02,-3.192420438871460681e-02,4.123856284022307805e-02,2.183586664369603636e-02,1.681998712221179082e-02,9.550825127320467303e-03,5.081312380388613992e-02,-2.579155332805313765e-03,-3.023550544858833941e-02,-3.870776074515637488e-02,9.587811511609324253e-04,-6.633064559318819706e-03,5.657213425025461352e-03,4.952597362562522615e-02,4.076693133346456430e-03,5.318622180829733065e-02,6.806488763741477821e-02,1.873155391617501581e-02,2.178699158981907066e-02,-6.262465553932536171e-03,-5.503064314948953595e-02,2.798205807070917872e-02,-2.540276262840396662e-02,-2.728240385411787733e-02,1.038315483481169477e-01,9.442458049503910100e-02,7.619309314662237043e-02,5.391971250538359073e-02,4.857763521508511734e-02,5.248561164761367248e-02,-1.936428326235237890e-02,5.636250156762982744e-02,8.021007594278056763e-02,6.275111003445181523e-02,9.897647901763259592e-02,4.370517995169471287e-02,-3.325220247314156219e-02,2.978020190996593861e-02,5.037854509931939673e-02,-2.973663036822299724e-02,4.632253642280251792e-03,3.093190351689105097e-02,3.538206759078624947e-02,9.694564256365348354e-02,1.959753910252210948e-02,5.261102311874266135e-02,4.173851013344439392e-02,-4.146781325288265846e-02,3.287078240703507348e-02,1.707337587516807084e-03,-4.969697408285783657e-02,-6.197150556520895220e-02,-5.242531959109159034e-02,-3.734597241702405923e-02,-2.048541919219602075e-02,-5.727600488068600171e-02,-5.816456108710316153e-02,-2.125917668339334307e-02,1.916193055396341050e-02,1.861037795971743833e-02,8.744332170567169216e-02,2.806766754353796564e-02,4.370057324301845902e-02,7.980799996287944731e-02,-2.408224187346587331e-02,-4.775502959318618512e-03,2.494833520257898687e-02,-3.725220440185368631e-02,2.137753816938424770e-02,4.088962604852977578e-02,8.988116592010221562e-02,8.108511702377096259e-03,9.508826325684226199e-02,-7.176846723452931509e-02,-6.684903619323100121e-02,-3.021581135617863734e-02,4.871858010310252396e-03,-8.368704895408135558e-02,-1.057215306309161607e-01,-1.858938400476538577e-01,-4.631393478594608704e-02,-2.426050433573099033e-02,-4.663927280541650677e-02,-5.541327873473233384e-03,-3.970280057616034503e-02,1.241478322924474686e-02,-3.424447417286873713e-02,-4.139163978410850125e-03,-5.124953329334403646e-02,3.274915186979727999e-02,1.370945463483502769e-01,9.123323206710311217e-02,7.167003621448748280e-03,6.956031371526409657e-02,9.767363166864949375e-02,1.092545455026432003e-03,5.894068472137825587e-02,-5.430129764385357299e-02,3.431806092727918839e-02,-1.517427504563988727e-01,-3.385779605648459728e-02,-1.291870752153821689e-01,-4.164034831750840909e-02,-7.414093697175713760e-02,-9.300095196024119049e-02,-1.487458829695398610e-01,-1.627435979633621299e-01,-9.878098639432202066e-02,-2.535391019473245966e-02,-3.580281469622771662e-02,-1.026341493921417575e-01,-3.264207469069735357e-02,-3.896714235550630123e-02,5.173595076499105244e-03,-6.300627901513439211e-02,-4.980051111661009527e-02,-2.990327180453061784e-02,-2.049637923411992343e-02,9.175239673103227633e-02,8.757550137786104805e-02,8.644791825581736588e-02,5.752875640141176354e-03,-6.828019352623231064e-02,-1.112644009426095974e-02,5.454310399411817396e-03,4.280374956933921671e-02,-9.227816665466376245e-03,-1.259492678430339518e-01,-1.316959595142554451e-01,-1.757204763225199140e-01,-1.729514147787730161e-01,-1.812595932503550666e-01,-1.933091465123092934e-01,-1.277361366136449961e-01,-5.351279191949468578e-02,-5.298468441284910624e-02,9.763075106180214846e-02,1.067154900509468055e-02,-1.912754934086201633e-02,-5.331659738679029280e-03,-8.047998680479327704e-02,-3.964914464487164641e-02,5.428264067422908928e-02,-1.015212322996961875e-01,2.721619677822393821e-02,1.269515478300984046e-01,5.528129753737316687e-02,4.971158281688662500e-02,7.744683988550707041e-03,7.222298995037713075e-03,-2.717264237229874424e-02,-7.687783231869319868e-03,3.638549777757837771e-04,-1.906385059376030852e-02,-5.611187759846741896e-02,-1.194831582254630153e-01,-8.750216546937109041e-02,-1.476308675593139830e-01,-1.459704971767506188e-01,-1.773594778185821896e-01,-7.093495973973809599e-02,-8.705726437997592104e-02,2.460836137138030372e-02,-2.395490411338902642e-02,5.894617510449703945e-02,1.463303097903105240e-02,-5.475849495847054382e-02,-7.610482505821837551e-02,-4.702154489771020671e-03,-9.710940402475807393e-03,-6.420006526032419336e-02,2.675088017916684574e-02,-8.355959509423121351e-03,3.469491305013971960e-02,6.399740284813913022e-03,6.948904895171174878e-02,2.780245928676165768e-02,-2.315511796033318040e-02,2.887408697684867159e-02,1.472564740189362224e-02,1.174456241413516372e-02,6.554377578249170021e-03,8.585411849141837831e-03,3.096666679954655430e-02,-6.866056817245871913e-02,-1.032390364492025009e-01,-1.110536450269466457e-01,-1.147308713722096363e-01,4.183467874386361668e-02,2.636284378605237982e-02,-5.868377334376756460e-03,-1.322052228306502646e-02,5.124207165771045569e-02,2.677192907991722895e-02,-8.879779777767361770e-03,7.709028542950187995e-03,-3.560928815525139790e-02,-9.983404963520672512e-03,-1.939605418045919124e-03,6.637218272338435421e-02,5.729741195101051981e-02,5.348400450308241766e-02,-3.305209582640430271e-02,8.919794507903985870e-02,4.999868808984498508e-02,-1.413998679969245657e-02,-2.822067418397397262e-02,2.790332179488982239e-02,-7.753255862605125392e-02,8.032981009880517387e-02,5.492723548165546511e-03,9.949149610434077085e-02,2.539191656114083307e-03,4.598265885560751109e-02,-3.624505172310005241e-02,-1.190140184321778760e-01,-7.197580342611305075e-03,5.964544523495312646e-03,-3.477697900736992018e-03,1.138017595086027525e-02,2.066312805060208438e-02,-1.824286450233283605e-02,-7.770879353759016506e-02,1.218690417961428019e-02,-4.284134810276801764e-02,-1.398696090140035854e-02,-1.773736119066367592e-02,4.742204030440237000e-02,-2.417220437077550674e-02,1.170312717245615003e-01,-2.983414433113109384e-03,9.049575353461515592e-02,5.021324898092328209e-02,4.340594967722543468e-02,4.927019168526867998e-02,1.102283994978477122e-02,8.443101046526546236e-03,-4.195554906431063491e-02,6.031675778737096739e-03,3.313042843745648419e-02,2.111311332821962962e-03,4.493415075173924980e-03,9.137676932779804917e-02,4.558712931982715488e-02,-6.834459805581453995e-02,-5.730494619425808428e-02,4.720062363683903001e-03,-2.927898620250327100e-02,-2.702081597490424425e-02,-6.638954283098938425e-02,-1.627247058974487168e-02,1.848907090070815717e-02,2.494306890332839005e-02,9.094336599172757329e-02,4.611185135371438648e-02,6.761590618713080036e-02,6.770292433453078962e-02,6.373406348097793162e-02,-2.543060761056642125e-02,1.301919402202697529e-01,3.172620169931859857e-02,7.566665847857716957e-04,-7.237581893045071796e-03,2.648769421314437281e-02,8.396396736348623116e-03,1.695386790525996341e-03,5.899372740723749647e-02,5.405077234689249777e-02,9.879489749123582243e-02,7.374005916485619483e-02,1.579934774171201373e-01,1.524994380139473027e-01,1.697609733180137082e-01,5.363632687200339810e-02,3.758553013256586695e-02,1.422765010099072969e-01,9.071450720882413832e-02,7.322765939610870189e-02,5.127496401852962155e-02,4.277316130368649660e-02,8.228282159087899061e-02,2.204420258280120198e-02,1.238686868340129199e-01,2.474297700798254798e-02,5.182640102309420127e-02,1.002840315666308491e-01,1.400913256960778508e-01,2.529144957073302044e-02,1.156638473817030340e-02,-4.157348576081958819e-02,-5.699007099365172718e-02,3.467591868303007696e-02,6.574052898180257100e-03,5.961608473848747924e-02,1.178350821252712247e-02,9.325732688483115776e-03,1.637651476348114254e-01,1.402042899361477246e-01,2.282402077086885805e-01,3.667697290264790300e-01,3.132284153078996880e-01,3.257981283173962961e-01,2.400515918193667775e-01,2.948153046649580888e-01,1.625468968854014706e-01,1.523139999545715662e-01,7.423872293103278563e-02,4.294793370912945024e-02,-2.068713901129057633e-02,-5.028774194820639920e-02,8.597276904169445788e-02,8.338536901379126065e-02,5.612686381114688483e-02,1.853360192722415187e-02,-2.407426595978224074e-02,-2.396200969357926286e-02,-1.224803179471543879e-02,1.372182770801410635e-02,3.332389861741878734e-02,-2.857848850546372207e-02,1.639310911188855691e-02,-2.429973775242113762e-02,-1.717353786734683932e-02,3.243077134482830887e-02,8.188840320281277896e-02,1.609098654478338664e-01,1.531509042520048658e-01,7.264087207273452196e-02,9.381810730418595201e-02,8.519579670584176423e-02,7.878894456467039342e-02,6.454647161695989399e-02,5.460908630280553872e-02,9.332932726940569579e-02,3.544577274178717374e-02,5.700182417901204085e-02,8.667204611404295822e-02,5.706398868788812445e-02,4.457906409384398277e-02,-2.070665388524100051e-02,4.695771368100282867e-02,6.417989090860509033e-03,-9.623208747939644703e-02,-5.962302016531195042e-02,6.827586438804278575e-03,-4.127151153038908366e-02,-5.673484314966188886e-03,3.742093642967813522e-02,-3.764946926113699188e-02,-8.199056569675655312e-03,4.553201964406502350e-02,-5.089754636998077009e-02,9.478485720484293442e-02,8.867913737468396951e-02,6.256731873249636589e-02,-7.435621253145913157e-02,-3.905240218590927403e-02,-4.293934927973935139e-02,-4.387638414538151677e-02,-2.793281034067767593e-04,-3.319061841081123732e-02,2.711419133074421256e-02,1.244344076996323351e-01,5.656992686317286606e-02,4.778821282138321497e-02,3.083604049843553796e-02,3.760342750235547843e-02,6.577469216580868541e-03,-2.185147566990029711e-02,-4.227761806696890556e-02,-3.292508860180997504e-02,1.543376686411225898e-02,-3.966684839963240290e-03,-2.196100965024167309e-02,2.933428285940307620e-02,5.572672254104762968e-02,1.468158923775766175e-03,6.105941385130218835e-02,-1.232323407214793755e-02,-2.490755578974812937e-02,-9.370132228156973983e-03,3.710906175781018140e-02,-5.616672798466623706e-02,-2.859210834613845273e-02,-2.270593533724935345e-02,-1.045805026713656771e-01,-5.460907645530727050e-03,3.271073285175059298e-02,2.424484291468923663e-02,-1.826536763667815748e-03,7.728726477509077764e-02,1.884366274134878852e-02,5.014356155592056274e-02,2.313224424189240860e-02,3.245675012382316649e-02,3.395773301947238587e-02,-1.589112333734993970e-02,-9.206264076762535331e-02,-1.495445505410284456e-04,-2.412134989378776975e-02,-7.152853083929240109e-03,-2.281936931322605180e-02,1.189666671458426694e-02,4.344036390852510504e-02,2.787706448661018271e-02,-6.604499378274768066e-03,1.445869763727858186e-02,5.880633335836770587e-02,-1.061425665695193699e-01,-3.683823645029619953e-02,-9.702177246393461907e-02,-1.005683636541294529e-01,-2.914682062545847357e-02,6.755722610548646825e-03,4.021144634793340916e-02,1.121509590998684969e-01,5.465639665952963522e-02,9.541616554061582711e-02,4.042806048434677973e-02,5.507188702553728055e-02,1.881150667059242401e-02,1.352023690732743755e-01,-2.711204403337833316e-02,-4.484481845061098586e-03,-6.189635085849980872e-02,-1.982349922504708303e-02,-4.731844227335154501e-02,2.521862779812643687e-02,1.179860448644583573e-02,-5.738927266759060591e-02,-1.558871774800471566e-02,6.066089582862829732e-02,2.324303093133888581e-02,-8.882240331324163865e-03,1.593553187681030422e-02,-2.414716956705912319e-03,2.065024132341829882e-02,-4.549313605345524369e-02,-3.329547842200358820e-02,-1.177108974951768250e-02,6.536651243227411395e-03,3.074117895309983611e-02,2.508770112212301961e-03,4.740062454803968539e-02,4.941160650348956629e-02,4.476804503070247465e-02,4.724106011622597467e-02,4.490215669470552090e-02,4.650167979127492468e-02,-2.194262330863739480e-02,-6.781370124478140748e-02,5.187988511405216066e-03,2.317624040077406137e-03,-2.799447334427385137e-02,-5.015831857469816614e-03,-1.151893690139147407e-02,-5.832237034948151155e-02,2.247243766137194815e-03,-3.880274630213795956e-02,-7.315998835746995166e-02,-4.821825289253141300e-02,4.895562972509374250e-02,4.612377629429392778e-02,1.544689053621979558e-02,2.393954949118247758e-02,2.547374255382379646e-02,1.535474890758508314e-02,4.518666540504925888e-02,4.220652182501127836e-02,-1.331838152797168787e-02,-1.776199147013874172e-02,-1.984714871043471301e-02,-5.932011209598631908e-03,-4.600232533743860153e-02,-1.272748672759631402e-03,1.161439711823830309e-02,3.319560716170085607e-02,-6.177089801447769452e-02,3.429513990055307882e-02,5.104824983546621744e-03,-3.237321266919705037e-02,1.928546823418714196e-02,3.334247362014243379e-04,-5.024400221421843581e-03,4.482012715211489140e-02,-3.756419617830128455e-02,2.233790922808716328e-02,-7.343786662037266044e-02,-2.709170807074049586e-02,8.024666225051437299e-05,-5.128487986920866881e-02,2.874467856490455289e-02,4.534931412982980831e-02,-2.449645628982598591e-02,-2.613657430669259069e-02,5.026550145730323063e-03,3.130562756688062831e-02,1.245671120730723440e-02,2.629985187186224815e-02,-1.369839180681892317e-02,1.713868416532072364e-02,6.976369530364874560e-02,5.253016108509164089e-02,4.943828988500544031e-02,5.865440786686303316e-03,-2.721192218190454301e-02,-2.940867619342878853e-02,3.760293399530881091e-03,-2.043052296266176585e-02,-2.755487209053906345e-02,-4.264271669768570500e-02,3.414668684551620814e-02,-3.052156676372878852e-02,1.430626935287114890e-02,-2.489386762245424448e-03
1.317336623167123487e-03,-5.234962914817001961e-02,-2.492678220377242751e-02,9.006460595523824164e-02,3.464304926613769736e-02,-5.500750722084134237e-03,-8.533741969584421327e-02,2.147761431807029830e-02,-3.467010073913018298e-02,1.126337397172951990e-02,2.602936397589999951e-02,8.806582135709799600e-03,-3.130134099122167113e-02,-5.617210860404647788e-02,2.000029472692372787e-02,-1.697274144949392771e-02,5.878858958147867297e-02,3.104819523532496850e-02,4.174355331258172708e-02,-2.745717351091770189e-02,7.724387153800330030e-02,1.317124292941650697e-02,-1.321165263156882930e-02,4.147028265925312845e-02,-1.241889792990519444e-02,4.336161566190002703e-04,3.712624860304758467e-02,1.564653409868149020e-02,4.899958575515922510e-03,-1.052016797783227736e-02,-2.193007624644965556e-02,-6.131312246692407694e-03,2.219812777603902970e-02,-9.530188957634706109e-03,5.011225898663605044e-02,6.634514485190691653e-03,5.969733982850461028e-04,4.124427994208946895e-03,5.115473480684891439e-02,4.055182388381086550e-02,2.694110683638493986e-02,-1.195903107717493329e-02,6.822564344639048262e-02,-6.802726284305830873e-02,3.811446774805231710e-03,1.240454849087832025e-02,-7.433785826167148281e-02,4.756361574924930502e-02,-4.833419071425867908e-02,-4.592447944408245553e-02,-7.445981289907431782e-04,5.403553335306250822e-03,2.400649757440005694e-02,1.222252402944731895e-03,-9.781173596000830930e-03,-8.717229908505525968e-03,-4.326709869199266839e-02,-7.458032958252718003e-02,6.746965787372583012e-02,-3.794563895849577956e-02,-6.216051099856449713e-02,4.496661702328206764e-03,-5.817843248569296716e-02,-7.578693957079504469e-04,5.059666471683874067e-02,-6.310762843531160515e-02,-1.040010397825408273e-02,-1.758132742742186602e-02,-1.405837309592209740e-02,-1.241289022790969870e-03,1.760189698048029647e-02,-9.662438940213964600e-03,-1.773740384875763937e-02,7.599538249078047203e-02,2.209818617779194666e-02,-2.571481436911229879e-02,-4.022337640679424925e-02,-2.799267727895004068e-02,-1.495815269322057009e-02,-3.523550555359335201e-03,-3.137315889425265972e-03,-1.370132136163873179e-02,4.760191917096401326e-02,-8.117587022629270399e-02,3.702570872553081653e-05,-3.874777508790988589e-02,-4.973311992972077877e-02,5.124606119915182945e-02,3.891810293073828114e-02,1.129093432238819153e-02,5.963584521003470663e-05,-7.107740240221296912e-02,1.106517444902452990e-02,4.527438760742299312e-02,-2.926474521732550654e-02,-1.220886892394707282e-02,-3.077146980293158848e-02,-1.526021192235246793e-02,2.236559341079434257e-02,-4.864086743363415372e-02,-3.626339540873197917e-03,-7.392614772067947594e-04,2.868970569603076712e-02,8.765641722785473544e-02,7.658706043625991555e-02,2.780077119265096999e-02,3.070233519347600332e-02,-4.151935856825363785e-02,-3.648462419826083158e-02,-5.264150950171537363e-02,-5.388710097942664423e-02,-1.817548236866456737e-02,1.377439480290487857e-02,-8.855143996372355497e-02,-2.361727806169132415e-02,-4.848207879817875016e-03,2.146570844736614414e-02,3.200882724092323633e-02,1.473881140758709005e-02,7.400723913861169574e-03,-1.077958532024774346e-01,2.744062658301122878e-02,-4.216869125598203538e-03,-1.295508225744155910e-02,-1.370763207641493078e-02,3.164921954705984808e-02,-7.432937377591607164e-02,-5.630108895340796976e-02,7.571895321936183976e-02,6.594331518019760918e-02,-1.895923575754149271e-02,2.982670694367659664e-02,4.642065426852493709e-02,-5.401786839009190683e-02,-2.340316116531217239e-02,2.273664487825996939e-03,6.121718418232698425e-04,5.977794412598277929e-02,3.089029097806302374e-02,1.262069675965942807e-02,-4.950365203069279248e-03,-2.581070486656577082e-02,2.006135012863188155e-02,4.273056042579190250e-02,2.196569194257261270e-02,-2.004357473467131487e-02,-3.534565202253121124e-02,6.931229119607236130e-03,-3.321358774810762027e-02,2.837745932116370225e-03,1.559426495907409449e-02,3.196470550928065535e-02,8.567345722791133711e-02,2.126714418118280311e-02,3.431896184271721051e-02,-8.024275393451657523e-03,6.910051672327545413e-02,-2.853830519911517566e-02,4.889271794723663855e-02,4.660772635462576835e-02,-7.783723351915675624e-03,2.333106684968651312e-02,-1.540719918015648511e-02,3.031942549520917629e-02,7.245689729612855845e-03,5.320662774525240779e-02,1.661809424483153691e-02,2.156504276601989289e-02,-6.687332221535897958e-02,5.879408600342737878e-02,-4.189809640936883323e-02,-2.665711927222334104e-02,-1.301554799567700982e-01,-1.012709139730938804e-02,9.156982589030171135e-03,-5.265434354340467471e-02,5.821329015786238376e-02,-2.525914968030615326e-02,-2.346170277376577451e-04,1.846371605986749098e-02,2.849961861664330326e-02,1.163665451422797245e-02,1.047470540151526769e-01,-6.268968629651164304e-02,6.624458746641467138e-03,2.232078725549170237e-02,3.726808793057111852e-02,9.885958075665463723e-03,1.717960061925024500e-03,-6.431649723860070889e-02,-7.332905335875696852e-03,5.435223878481861004e-02,-2.287474283780451673e-02,-2.322206213200297097e-03,-3.980178426606314351e-02,4.591982422371619112e-03,-2.193336599847646104e-03,-6.133548984760941319e-02,-1.537308038197495071e-02,4.577263337340867211e-02,-4.094016119738684567e-02,-4.459374480666720986e-02,-6.698410607889272901e-04,-3.150674100763432850e-02,-4.173210744101441168e-03,8.604419238818387938e-02,-4.393748840321576310e-02,1.137778835039293668e-03,4.175633340403567956e-03,7.953485159167607288e-02,1.018592767892455286e-02,4.227934234358490806e-02,2.420288242008278995e-02,-2.821839840435113461e-03,1.245686394353555902e-02,8.387522324172008714e-02,1.135224697310496800e-02,-5.189412843389842184e-02,3.568087801527046465e-02,4.470693177253408368e-02,-3.310694351531103669e-02,-7.691405103102168239e-02,1.033819959529179953e-02,4.169682008972254439e-02,-5.093689984845578556e-02,-5.357022058904780705e-03,5.984451735369042402e-02,-8.135354992379649833e-03,1.451711126833991200e-02,2.562398930893670240e-02,2.723567858226693186e-02,9.966411902763563230e-03,-1.247913698584740376e-02,4.531838389255077315e-02,4.064911788151345101e-02,2.375300397623964985e-02,1.453807957870277383e-02,6.264507492312987140e-03,1.609427912577928929e-02,5.009319711801508979e-02,1.605078306643156760e-02,4.900164572391767226e-02,-7.328910228690387919e-03,-2.925983383931579987e-02,2.658632984059493623e-02,-2.186662085550840698e-02,-2.144120074969103548e-02,3.648583487386934578e-03,-6.765292912065638820e-02,5.371520118184936604e-02,-4.362115613946370568e-02,1.354101002816711016e-02,4.308369059230794662e-02,-2.782182651358155664e-02,-7.876900530482039420e-03,5.279109970969673299e-02,4.978128427453024085e-02,1.969476998925866543e-02,6.057061465677576056e-02,1.924067136114415710e-02,2.111555594220183504e-02,-1.979936302999229375e-02,4.320796264361110445e-02,-3.349380448189705900e-02,2.092618560122735255e-02,9.004855257042762920e-03,1.056024574189944401e-02,1.644773072160470723e-02,7.262936820566182061e-03,3.216642686433692638e-02,5.110243765859172511e-03,1.661913721742389397e-02,3.183683198063421566e-02,-3.552398619888645637e-02,-1.599053027973088709e-02,5.209675754991820347e-03,-6.561378946343697505e-02,3.083187109917149768e-02,1.683425001032728963e-02,-6.956654021141592866e-05,9.640789539191008117e-03,1.433751282630391262e-02,-2.802561018585269376e-02,-3.309825337367337805e-02,2.269768354681763606e-02,3.438192650986492127e-02,4.957203423768864747e-02,3.539659443980350262e-02,-2.468215973034309368e-02,1.635302276234579244e-02,-6.071957727125133764e-02,-2.237355714305718293e-02,2.273110981086665788e-02,3.796516699867040490e-02,1.754218866836764618e-02,8.610094666771993949e-03,5.212420426201470197e-02,4.982752413191465779e-02,2.512190655914206538e-02,6.269102972394334505e-02,6.857975883453162717e-03,-1.332859959794541367e-02,2.369666032522958765e-02,-3.959389783246362177e-02,-2.957852918776014348e-02,3.142345380087848555e-02,3.237579438373327373e-02,2.833807872448139767e-02,4.067142923789676678e-02,5.145226435571378931e-02,-6.874314407042561408e-04,2.315853459767979947e-02,-3.384541404479281951e-02,-8.428356113523629428e-03,3.254440716232256947e-02,-6.550781215384693899e-03,1.776065012898014883e-02,2.040954674450299461e-02,3.097284283711844097e-02,2.985281245623932697e-02,9.687986825643828126e-02,-1.676366488166741026e-02,-2.366122394291056419e-02,8.934863405315698892e-03,7.455247353974001068e-02,4.571219410617405332e-02,2.857740883762835415e-02,2.534526605548907338e-02,2.646339937196244205e-02,-3.068072060476081941e-02,-5.175350208164190141e-02,-8.007539566151025689e-02,-6.934915043019336534e-02,1.131549651246148598e-02,8.009752367144387999e-03,-3.567023670120564316e-02,-3.159713541494282765e-03,-3.786896676184571542e-02,-3.212566812587796389e-02,-3.433475740682353367e-02,8.604229440528406853e-03,3.968082349524022084e-02,-7.711862910920625489e-04,3.702695849497437963e-02,3.555408191996968503e-02,2.256371950301823762e-02,4.210931618231471968e-02,9.749922209857536659e-02,-1.034963299180584675e-02,-3.706149153277001063e-03,2.475423729992845198e-02,-2.449180724767961378e-02,2.080819834825924086e-02,3.881881829454160437e-02,1.154936355790630795e-02,8.866055244800181978e-02,6.243822097649710801e-03,5.310386111754667599e-02,-7.179006936490642775e-03,4.618182056588267248e-03,2.016312695499142271e-02,1.304333932827751556e-02,-4.076772306900944276e-02,-1.143960696352383510e-02,-2.054476753432941949e-02,-2.271323105384877653e-02,6.531488480769745419e-02,-2.478160575769530402e-02,3.580070011644356787e-02,2.348860873036012070e-02,-1.005139247677675624e-01,2.801717503899616921e-02,-2.479356313981786672e-02,4.338508544854532967e-02,3.100905658020834677e-02,3.230631845360723564e-04,1.613074226237192280e-02,3.825846151868195211e-02,-3.972923503787496868e-02,8.961750616289190785e-02,-1.871112071970671212e-02,2.490830048832537447e-02,4.870700763522921480e-03,5.972879789134705186e-02,-2.438901698229613974e-02,3.526439455510949061e-02,-1.207673250666274206e-01,9.542953874921485807e-03,2.626336854626187128e-02,-2.120933029732099614e-02,-5.126616592265294259e-02,5.541910098500370252e-02,-6.326066306421205231e-04,2.056328110745042625e-02,-2.766146393970758677e-02,-7.987543783522335281e-03,9.950192405334794266e-02,-2.759631206130655837e-02,1.697422167879704402e-02,-3.527772222407324354e-02,9.930380219989785873e-03,3.760539251392666649e-02,2.585607924809167624e-02,1.971514875436275460e-02,6.825426291595056150e-03,-9.655438752435234473e-03,7.158957505419025202e-02,-9.895751235906887280e-03,2.996031451804939075e-03,-1.196745320789779736e-02,6.042938584563737996e-03,3.763655396033264294e-02,1.576233135312601202e-02,4.645543152826534655e-02,5.377426347520093686e-02,-3.120037878144927418e-02,-6.264410863845853994e-02,-4.183833462970785316e-02,1.791174080303495342e-02,-6.617935810100067373e-02,-1.464272301430300655e-02,4.453205881366497504e-02,-2.304388998601604108e-02,1.425155545002496603e-02,1.810612526213238593e-02,-1.045493880588481417e-02,-6.097576549249512923e-02,4.484615700289651744e-03,6.188621691822638465e-02,3.483695695453806196e-02,7.350375268127241901e-02,7.196952894030346493e-02,-1.203660082269225953e-02,9.592038710776561519e-03,1.086279475036998204e-01,2.249962910672594074e-02,-2.511254716664278186e-02,-2.410690567972522639e-04,-5.367258802533894993e-03,2.544126296992000463e-02,-8.352917405685097779e-04,-1.582459014552476187e-02,-1.698860385701963377e-02,-2.308728129903292459e-02,1.012942310662332673e-02,3.786626686176841616e-02,1.158109926715670396e-02,-3.991688191688071152e-02,-6.752009437308579762e-03,3.947767680503367488e-02,6.943164839817055067e-02,-3.696463876903359046e-03,-2.768242431486514499e-02,5.372610170884634800e-02,-3.854777781854815122e-02,9.538156236614137029e-03,2.949992736958956339e-03,4.802470796957324789e-02,4.313443534890705477e-02,1.253238756134185741e-02,1.824333510942886122e-02,4.451256661519590457e-02,2.661512110178625157e-02,4.432373491121854164e-02,-4.289369141765950015e-03,4.473051818101634637e-03,-2.153924623619299719e-02,8.149963807387758732e-03,8.779352576910273709e-02,-8.121140356978448493e-02,-1.461146026170553718e-02,3.547784437753213378e-05,-4.650842084155989292e-02,-2.593902114603190492e-02,1.651237334252703484e-02,1.725577211123080837e-02,3.182940293631097983e-02,1.882321907668939309e-02,-3.998263292126242457e-02,-2.099091587461934111e-02,-1.305235828442234507e-02,4.252500230698667144e-02,3.493691095993126799e-02,-9.975471972935174778e-03,-6.172364993400368538e-03,4.042194176017931129e-02,-5.636414249295792350e-02,2.660720673386760687e-02,7.273868927667108408e-02,7.824035315513360248e-03,7.333895518645779099e-03,7.612124337386447399e-03,-3.268087520907760057e-02,-3.808137417744452552e-02,6.766076818195988773e-02,3.824191613186384009e-02,-1.399589952450443729e-03,1.919464731852831008e-02,1.586929667032900559e-02,-1.877484347055104891e-02,3.990686311536982209e-03,1.188370022471594905e-03,3.375922066882228872e-02,1.818372648666479949e-02,5.874482449969851972e-02,5.091987367276238491e-02,-1.544495143926564486e-02,-4.131555018207862251e-02,1.822547198926921866e-02,-3.092966746628859551e-02,7.237913941548139440e-02,-4.850253815521678169e-02,-1.090221751548654458e-02,-6.558254096653558241e-02,-3.552988290176202490e-02,1.326433417784802192e-02,1.683082007641929431e-02,4.869792037327032308e-02,3.260171764858554172e-02,7.127590222106536559e-04,3.972075260454954043e-02,-1.824195500649144347e-02,-5.356832384407901951e-03,-5.391281373431749437e-03,3.925097578628984618e-02,-2.986985902473252366e-02,3.481539672181063055e-02,-1.734561806258809111e-02,-4.738849076730621002e-02,-6.829449707972953809e-02,7.075770403150396202e-03,9.635248077178163936e-03,4.322645723215347291e-02,7.926531299352458301e-03,9.934742272795811860e-03,-3.541742512913959029e-02,1.083039735330788844e-02,-6.702443757650125566e-03,-4.797233941014224234e-02,2.536204102643736108e-02,7.501007117538373292e-02,7.288563205716856730e-02,3.208488381927694644e-02,4.742138597677998668e-02,6.170198495202234429e-02,3.092326442691671617e-02,8.660019501667714018e-03,-2.326741866933841954e-02,1.463168267456404700e-02,4.415791989596744987e-02,1.525243702850349360e-02,-3.247682411623499521e-02,-2.093070430181179567e-03,-4.648459138878227592e-02,-8.183068048266582684e-02,-1.283526591895983726e-02,1.250442107101959813e-02,-1.004336738808649619e-02,6.934073753278161001e-02,-6.677393923217095351e-02,4.068411944031152111e-02,-3.459021077272330519e-03,-1.131985078931736430e-03,2.372233291490882107e-02,3.391523318852681518e-02,3.437327977662855277e-02,3.801842850846477197e-03,1.371660194205207711e-03,2.984879534769059942e-02,1.816534791746241342e-03,-2.968756481046412252e-02,-3.224033439640945631e-02,3.112104316184789027e-02,-8.881962994256167171e-03,6.270484746598282977e-03,6.160106568022566398e-02,-8.518603356460943687e-03,3.233774692978614446e-02,2.720080523352197410e-02,1.023994857857692467e-02,-9.957673290476920906e-06,-4.718120189991278045e-03,-2.893547133888391479e-02,3.133075901305097666e-02,5.246344496384609812e-02,8.452634838533819306e-02,-4.253803079614766613e-02,2.201545769930204899e-02,-6.952281304565553766e-02,5.125760608216982026e-03,1.260991371451686965e-02,-2.275416135562730383e-02,3.351366634230430741e-02,4.564236458043430603e-03,4.711291918965720971e-02,4.498138943998081923e-02,-3.678632684336518438e-02,8.755330037939265675e-02,-2.514402775065563769e-02,2.689058629674626402e-02,-6.209001726193610037e-03,2.301941040096593116e-02,-5.117338205885678219e-03,6.857331871051627892e-02,7.024584774074604278e-03,-2.548859009091318864e-02,-2.447163478866803965e-02,6.891327320390412681e-02,1.233818394945665649e-02,-1.074500867503115284e-03,2.733285713653282184e-02,1.478828219488145714e-03,-3.574649114655832627e-03,1.358609917033562833e-02,2.437381345661295690e-02,-2.618308992837545951e-02,3.360781590485378834e-02,5.114925292859804316e-03,-3.235656908846824831e-02,-1.712539805005982088e-02,-7.421690100422957594e-04,2.015167272850303115e-02,3.972343733478574113e-02,1.603211797174066908e-02,-1.095718364136147316e-02,-9.278166991088472593e-03,-5.850129999228106644e-04,-3.920632843713441756e-02,5.750954210027574981e-02,3.523972021008104499e-02,6.042963805706584070e-03,1.129783960531923273e-02,6.863750820251357521e-02,-3.242712218274965402e-03,-2.524943362380277501e-02,1.133625730261090918e-02,-5.384985691658035478e-02,-8.363579039647758839e-02,-2.974804128293045968e-02,-4.249421843569010926e-02,-5.252541737276632955e-02,1.069332322265574564e-02,2.581496346954889609e-02,-9.312387826513490729e-02,-5.943189883348199906e-03,-1.407102023619064522e-02,-4.835312412298270468e-02,5.283475042506035474e-02,-1.572811970191971900e-02,5.345454557639225251e-02,4.492565034369529892e-02,-3.042140348296202765e-02,-7.573478121510891781e-02,6.287777434010512201e-02,-4.561726796432780812e-02,1.919692187356188129e-02,3.712110668857340409e-03,2.865679922943235175e-02,3.387605667156737971e-02,1.692329164742755604e-02,-3.011267118083434807e-02,1.625631681184629834e-02,1.519382530011156862e-02,2.683302185302472581e-02,2.468409713631445832e-02,4.395851895009824511e-02,5.828731272323185719e-02,5.063808069032850120e-03,2.936290708548654031e-03,1.666166819387995129e-02,1.919989570751007985e-02,-1.422141995777875118e-02,9.571789925522984632e-02,3.362054934849337956e-02,-3.483191202163943290e-02,4.030981399733046810e-02,1.399357563993144753e-02,-4.579307030276789925e-02,-5.294260505750034845e-02,5.621680125614544193e-02,3.128085651439899140e-02,2.195968315191147019e-02,1.140272742413642182e-03,9.186968291830716060e-03,-9.172227930157282605e-04,1.128854543053338204e-02,9.096978228367198771e-03,5.094497892903843139e-02,3.080166084446891387e-03,8.013117686009672835e-03,2.919306247032418117e-02,1.700354657440113909e-02,-5.401307705784231389e-02,-3.665015780543769142e-03,3.120083450283732233e-03,3.075260980419184179e-02,1.938571862721602188e-02,-5.454939639840635998e-03,6.379609477316700028e-02,1.280874455790083875e-02,-3.471520160646748582e-03,-1.402683203214276884e-02,-2.779367485442123947e-02,3.469378141580162223e-02,-5.149142475306662387e-02,-4.927633143765263422e-03,2.622931505741763966e-02,-3.761668131567291046e-02,-4.911260429027178298e-02,5.702798992246550097e-02,2.082368315682944782e-02,-2.642626462800379272e-02,3.573514088809619932e-02,-5.534292933684356597e-02,-3.738111034530660487e-02,7.479200375273042933e-02,1.686930654882361560e-02,-5.409465443381818173e-02,1.975893462213495697e-02,2.385951879510109924e-02,-2.984662559922818259e-02,7.820375299637058464e-02,-6.491241857152617312e-02,-1.805674404052525633e-02,-1.817805981898582696e-02,-3.937932765648463618e-02,-3.341332473670754338e-02,2.840754173264938356e-02,-1.111126104917299802e-02,-1.618923953488624057e-02,-1.951322931009404071e-02,-4.557222392590215554e-02,-5.801194573269765481e-02,-2.017356779683632945e-02,1.293162011700340133e-02,2.081238625044296367e-02,-1.345133425619157892e-02,-1.993980943243504542e-02,1.029548399045913769e-02,-4.031679681152175281e-03,5.265888205892170493e-02,2.242837128607452768e-02,4.560043350232297760e-02,-1.194258226524377332e-02,-1.555038913668505517e-02,6.256331807851223115e-02,-1.100043292735194966e-02,2.571560859953750649e-03,-2.669039061264023155e-02,-3.368955603182315073e-02,1.225821847321739233e-03,-3.752821867811024798e-03,-1.793255001708417588e-03,-8.662856087929163285e-02,-5.017198042517176382e-02,-2.564161938141207298e-02,3.822413145658781070e-02,-2.059650392399721072e-02,2.924813934386426978e-02,-1.144819212478462821e-02,-9.645847677961436051e-03,-1.394894110123695401e-02,-9.923162423262098242e-03,-9.919582701223691665e-03,3.770571023222423022e-03,2.068005094440187371e-03,-4.327675766227098014e-02,-1.986803055472108684e-02,2.343533499156195271e-02,3.275746667003903018e-03,-3.210606710927901147e-02,-4.690503542191468839e-02,1.605988511669424745e-02,-3.054100787532901956e-02,4.248259706798909047e-02,1.805153635702488185e-02,-2.413651396040400465e-02,2.296753283398030726e-02,9.366332892656868345e-03,-3.589618377101360487e-04,4.944442235706722477e-02,3.632131506484248540e-02,-5.239832262844003980e-04,-1.036041702399402922e-02
3.533406743328660476e-02,6.233636203888437421e-02,1.096027930981184791e-02,-3.218748639353620402e-03,6.877380411765433160e-03,2.719811373242933539e-02,3.316118868743254955e-02,4.062129083141353958e-02,1.849951825448345466e-02,4.400814278462760604e-02,1.044136648269362345e-02,-1.646002724007476423e-02,-7.019396412791653606e-02,-2.228172401286288972e-03,4.327714324744870444e-02,6.501443113756741332e-02,-6.809958577704104676e-03,-4.388451297440187221e-02,-6.265202219490485780e-02,-1.443983273822027798e-02,2.186335933050655503e-02,1.976557124858746572e-02,-2.918387538506565793e-02,-2.643183821917897969e-02,-1.690140339464651573e-02,7.004713144511041240e-03,-3.555129616740107523e-03,1.828561057320172642e-02,1.071944338087409999e-02,6.404393592697771309e-02,8.624423451901027868e-03,-6.575627673779923035e-03,5.969982308092287165e-02,1.762898495647537492e-02,-5.036908835438359822e-02,1.461541118548882745e-02,-6.357783559950550001e-02,-2.624617696218008167e-02,-3.930181833889263149e-02,-3.489839025868000932e-02,-2.718676353145675975e-02,-7.498178406672524610e-02,2.419694369967325884e-02,-3.650841581456678447e-02,-2.303455842293191877e-02,4.036316746446692860e-02,1.662481178687247318e-02,-3.429743995273647206e-02,-5.902028326718697371e-02,3.883476497042209069e-02,-3.041038573400070902e-02,7.874050832868793523e-03,8.437670701069197032e-03,-8.537688681083219211e-03,1.215936596042654395e-02,-1.411739526889147812e-02,-3.365728982373891037e-02,3.201984560351404940e-02,-6.436875405344531786e-02,-8.345638846194445085e-03,-1.223987516097923590e-02,2.285870870583499304e-02,-5.343682655089371236e-02,3.041653625223627103e-02,2.030370049629058593e-02,-4.163999097917624181e-02,-6.093665364388889394e-02,3.887900102561136356e-02,-1.647908443264604721e-03,-3.314516473733320617e-02,5.547859776871341166e-03,-5.087332765874693491e-02,-5.214849591072445029e-02,-5.140790872054922531e-04,2.803457408087088598e-02,-1.089645372413802910e-01,1.444758515240867312e-02,-2.155971688176580581e-02,-2.144910921896134651e-02,2.035887481972276439e-03,2.206782761745226806e-02,1.398068986591138700e-02,-1.829329757738023046e-02,1.619665662058007369e-02,-4.179142564729561998e-02,1.519655617842600136e-02,2.539621131952833253e-04,8.915117989823371017e-03,-7.909826847067230604e-03,4.830899407309314358e-03,3.217483701837488969e-02,3.484700401055715324e-02,-1.309686869059393383e-02,-4.394318209382670759e-02,-6.213046415750895363e-03,1.316490779480656778e-02,-4.964662146459966618e-02,-1.788575418822983820e-02,-5.056231592921771323e-02,-7.069134562764878282e-02,-4.944646469761852098e-02,1.667164181073154880e-02,-5.296199449392603037e-02,-7.471540274431423545e-02,-1.817994793167988440e-02,-3.648057483906055193e-02,-3.940853362231550028e-02,-7.131877372087720886e-03,3.496864766014643605e-02,2.833499354022666478e-02,3.255467287360124667e-02,3.593797093042128132e-02,1.510957028660914366e-02,4.520543374144544990e-02,3.292918153370142514e-02,1.622353626191930936e-02,-1.094661392629626279e-02,1.492760447961350746e-02,-4.922505537198412773e-02,-6.827579915230501395e-02,-6.378222410898166939e-02,-3.283368262304015711e-02,-4.671925769495101355e-02,-1.180621730304696679e-02,-4.052285408348503537e-02,2.427947383748404672e-02,4.790278968159434464e-02,-1.896157062191117237e-02,5.709349586547572686e-02,3.868105918676723043e-02,-2.417356239194011491e-02,6.828357730421501237e-02,-2.388117148888992125e-02,2.045933799517050608e-02,-5.172244503166165304e-03,-4.324625243499664873e-02,-2.010392352688425768e-02,1.863412541699757674e-02,4.788657951157795217e-02,-7.351242356186182825e-02,3.410435144473813324e-02,-2.177394650779362548e-02,-3.933203195100752093e-03,4.900636591992105218e-02,3.419983064851494364e-02,-9.985525391581425575e-03,-2.027014535756639993e-02,-7.336646031435469298e-03,6.107839387742272641e-03,-7.870363366043804654e-02,-1.157659416675848874e-01,-8.157964214610047282e-02,-1.176704168319584187e-01,-5.715114308956880523e-02,-1.106401494429142505e-02,-2.674308132453958459e-02,-1.625785382476439139e-02,3.017648173117780733e-02,-2.086675311943052627e-02,2.351183483036685049e-02,6.279776979740065920e-03,-2.713358356807187358e-02,-3.800359430284217660e-02,-5.021648363376143148e-02,-9.612933219176232613e-02,1.311380344333302160e-02,-2.101167903061891204e-02,4.672863713597270180e-02,-3.764033424112448595e-02,3.717157485495380803e-02,-4.101170784047060251e-03,2.580652829434249354e-02,-2.688253869880976449e-02,-7.370842282384314215e-02,-1.759675688876553498e-02,1.836506270956273640e-02,1.601072648423888106e-02,1.613096545439538995e-02,-4.773212194897718391e-03,-1.496566913668920078e-02,-1.174011942884905894e-02,9.219824293474553414e-03,3.197203881204093660e-03,-3.876414424718602203e-02,4.228071550928463179e-02,-3.334532049583867341e-02,-4.248493518260034602e-03,1.117776413139393021e-02,4.894291703148195144e-02,9.604288397093359297e-02,8.495439889345479667e-02,-1.215077364075616874e-02,-4.700674542633824504e-02,-1.186249732443600546e-02,1.584062448316773605e-02,-3.638110082179032978e-02,2.126176929617200340e-02,-4.981954703140911711e-02,-2.509113094012037706e-02,6.484750586459958610e-02,9.288153222261901973e-03,1.073679532384945873e-01,1.029582757120346553e-01,1.589070231446840231e-02,-2.534753086563465430e-02,2.798467148714368566e-02,1.086650529670410946e-02,3.923757292965723842e-02,5.776850925587134755e-02,-2.436213434326528829e-02,-2.112140960223060637e-02,-7.299963277541905715e-02,8.560330282661262127e-03,2.360950958687633300e-02,5.215270559014034690e-02,1.898910983016832699e-02,5.765218461330947480e-02,-2.996099180183466743e-02,1.152751995319039324e-01,2.890408662698317269e-02,-6.901780355179061577e-02,-2.329357285313686521e-02,-1.820252986148578403e-02,3.885489718741281379e-02,3.068797166740675365e-03,4.695329540389822642e-02,7.505019261395477238e-03,5.755848933032622211e-02,1.060099116731453295e-01,6.088786460167709691e-02,3.655462425711243635e-02,9.090134212202467812e-02,1.090792291175520651e-01,1.881332087595592728e-02,9.168274947649210360e-02,-2.006381555933844235e-02,5.117635676216607948e-02,-7.714984923774760583e-02,8.462831712791201583e-03,9.265198419719268552e-02,-3.827829940729520625e-02,9.703393380256720990e-02,4.495605263888871606e-02,2.718156032349574105e-02,3.579472973528222829e-02,1.082983528864003321e-02,6.230178822868234073e-02,3.047248189667065010e-02,1.443835032615036623e-03,-6.937888099260482166e-02,-6.165829853502464292e-02,-6.287960676917409703e-03,-3.229376882287257090e-03,-1.299651644549118350e-02,-1.016562922398733804e-02,4.744798741624853960e-02,8.870402987835045161e-02,1.039750788753206340e-01,7.004931133240692442e-02,3.079209833813860431e-02,-4.831136730393605777e-02,2.072365346891982471e-02,7.597042062566874976e-02,1.212699870049949169e-02,4.408090638878023326e-02,-8.439140456709584570e-03,3.564052223125574459e-02,5.801245573127283839e-02,7.356975406231519576e-02,7.523527411053261560e-02,8.717799422145566801e-02,8.193082370137486081e-02,1.572070247599714060e-02,3.510804684904382522e-02,4.515167696055282648e-02,4.451117305566359289e-02,-3.867288793971954131e-02,-5.292879290257788971e-02,2.266614354516543854e-03,3.577882895493082749e-02,2.595296145064455301e-02,-3.500891900687284897e-02,-1.551194078388115107e-02,6.494395236408033456e-02,9.502310572834207769e-02,6.600904993259457121e-02,-4.486422254521201317e-03,4.329513943201218629e-02,2.936571210689774281e-02,2.468440063101120033e-02,1.189393867120482583e-02,1.158392264661039367e-02,-9.062283671720093581e-03,2.228809080122753569e-02,3.350007970683431535e-02,6.709226311136798349e-02,5.471464069863320873e-02,9.596153447410803172e-02,9.961889803319455561e-02,2.807212619213605986e-02,1.248869646483184437e-01,2.236442538252161188e-02,6.804625921547524658e-02,-3.959766312680882555e-02,-1.796881859536432827e-02,-7.143007356425506993e-02,-3.378660518977916194e-02,-8.881669623434163691e-03,5.981782317156586481e-02,1.462595660007728372e-02,5.121719085930642040e-02,6.640771410885584758e-02,1.473028619498906178e-01,-3.572177055105196092e-02,1.583630006498275289e-02,3.258691036469096164e-02,-1.700180540726162204e-02,6.789162464433978750e-02,3.018733468879684911e-02,5.023647108739930089e-02,9.162885868908755838e-02,4.445752704664601013e-02,-7.970008999273983652e-02,-9.210539204023367177e-02,-4.576879534588468301e-02,8.053344607808410327e-02,1.822741950465034400e-02,1.280566587039836668e-01,1.022490247047093403e-01,6.208667686242518718e-02,2.103349407363301962e-02,4.621383979935981406e-02,-3.762246841757774934e-02,1.944852986422193229e-03,-8.442470263476338499e-03,-8.647334576681297777e-03,-2.552775381111000233e-02,1.407827524597980544e-02,3.371963469420014015e-02,5.070741862957016399e-02,5.394409501984488708e-02,-3.216033248369867120e-02,5.131937250599667710e-02,9.153163247745831066e-02,2.034171105479988528e-02,2.806275615666422793e-02,9.760323092080185059e-02,2.750423680619453609e-02,4.416774185623349724e-02,-2.511677186321432248e-02,-2.072072329274721181e-01,-1.124826076409495279e-01,-5.863043617628638411e-03,5.400372481482018650e-02,3.893988705593084271e-02,-1.171247208792562319e-02,3.464960298641981545e-02,-6.533549922924737977e-03,3.731416625598107245e-02,4.662682964183741119e-02,2.977070536883499527e-02,7.864020168451298087e-02,3.379950334765513542e-02,8.502644132003389296e-03,1.178220983291068148e-02,-2.866076845733284834e-02,7.204560547288249052e-03,-2.164965546464800786e-02,-7.193534585214596093e-03,-2.829473144609688171e-02,1.090332682160582815e-02,-3.444006404442424840e-02,2.020815389398120110e-03,-3.515554360112908838e-03,4.415631466801872573e-02,3.664256264369128435e-04,-6.745599573068490618e-02,-1.378752509135197923e-01,-3.163262768870516717e-01,-4.859603156762591636e-02,2.190115294523723929e-02,3.126768012824123616e-02,-9.269171842789218629e-02,-5.185327074598938824e-02,-1.547636837908760235e-02,-4.105976243333507580e-02,2.889048782004249166e-02,5.005868629781838608e-02,-1.124616284661651179e-02,-2.048303959820976794e-02,-2.822510974027998831e-02,-6.361377719611396864e-02,-6.964425588497509534e-02,-4.299249499513531358e-02,-2.092160415759785133e-02,3.770859191414313756e-03,-8.018914284960150518e-02,4.077618986978152893e-02,-6.930060129090409582e-02,-1.089590926722931036e-02,3.892730984686469577e-03,-6.364881050873333335e-02,1.080834291341494467e-02,-3.212339954530067654e-02,-1.164054900726034097e-01,-2.531868614148000685e-01,-1.803644957807548632e-01,-6.153092268222421640e-02,-5.345891458837375571e-02,1.879595010988605042e-02,-7.554780096277660673e-02,-7.699199892586244820e-02,1.765249979044981876e-02,2.172780234201820287e-02,3.132090333734981191e-02,8.625092162779096627e-02,6.843822062909578341e-02,-1.141504436612505134e-02,-9.547889521792500209e-03,2.180495213775902191e-02,3.482809849318350276e-02,-5.164399130083758074e-03,3.120837244705440810e-03,-4.930790743462708930e-02,-4.582309534117255667e-02,-1.309769658889232448e-02,-2.348307575987469004e-02,-8.032130195969267028e-03,-5.017304853886126077e-03,1.255117781229621613e-03,5.481341147046141921e-02,-1.533505817469149428e-02,-2.064619420224810264e-01,-2.059186467859057679e-01,-7.278338354438738944e-02,5.503237894882688150e-03,-6.291966746004458433e-02,-6.033181310513617557e-02,1.298853669383052620e-02,1.576022470746735876e-02,4.095280106478401544e-02,4.676072270620863086e-02,4.910003396151427224e-02,1.162259883672128458e-01,8.452093648792148584e-02,4.011070358275217740e-02,-1.374705646269994662e-02,3.554890942110901231e-02,1.393609802615315522e-02,-1.551963411897999863e-02,-4.336120225376147164e-03,-2.518490935312193979e-02,-8.460730037108370183e-02,-4.983568656147903397e-02,-1.111852145856672032e-02,4.282019190061925329e-02,-3.004796281410383393e-02,5.221646152070621300e-02,9.783075302641233706e-02,-1.847926954579158787e-01,-3.050592638087187281e-01,-1.913463342651776644e-01,1.733092618353093434e-03,-9.887698758908023550e-03,-3.729656394626705562e-02,2.102808559060690211e-02,-2.013382123210157720e-02,7.817538425426140414e-02,2.255604873743562513e-02,3.405625978340389576e-02,9.297823625717521745e-02,1.157129113216341931e-01,3.637885861294368195e-02,-3.422130585540319320e-02,-2.444073627883737790e-02,-3.581887306216570421e-02,3.495314267048081625e-02,-3.914139273580614399e-03,-4.428679800442757142e-04,-6.749880834786343986e-02,3.761360441662333493e-02,9.705741238513081182e-03,4.981633843705510906e-03,-5.012878691660001274e-02,4.214777470532547754e-02,6.730343353480022772e-03,4.311697662526466773e-02,-1.304303663048638207e-01,-2.025607641559265537e-01,-4.124610703129893280e-02,-1.323590013456736256e-02,2.344575620953804652e-03,7.351819249257718521e-03,1.515484078368367279e-02,6.362494183400302372e-02,-5.414084291658948639e-02,-5.979969700615966888e-02,2.027790203589656740e-02,-8.182871422129584307e-03,-4.627008604250395542e-03,-3.582330384321304878e-02,4.745556640918308089e-02,-3.980237491155531188e-02,9.524418864334627255e-02,4.401160406372216921e-02,-4.115528047081697290e-03,-1.888491278041959636e-03,-1.546356811816761677e-02,-3.378839981304819322e-03,1.580366807684249753e-02,-3.757240360572609156e-02,3.755686087780537447e-02,-1.674058232916183706e-02,1.887024561204710821e-02,7.329176405345855239e-02,-7.372430481246088074e-02,-1.551041319052114675e-01,-1.187502869015409079e-01,-4.885036339665810995e-02,-2.161569441547943685e-02,-1.695096500442188139e-02,2.441436867297363394e-02,-4.169800616445971247e-02,-7.962459848090026882e-02,-1.216944606057557554e-01,5.277740221228437167e-02,3.422262511183989109e-02,-4.530233517520930453e-02,1.883389753913281700e-02,-2.072886772075380191e-02,-7.705256874453319822e-04,4.633354191163641111e-02,-1.093795707438502754e-02,-6.892305319490324433e-03,1.216141532977380729e-02,-3.959827705196147102e-02,9.961962522359365385e-03,2.204477813518583226e-02,-6.051161424806129202e-02,1.420292298141680870e-02,4.258529426308919896e-02,5.907638826352173966e-03,-6.774978417558043774e-03,-7.831501495596209297e-03,-8.445910003073002492e-02,-1.623067188158239249e-01,-7.684672869673192519e-02,-9.753400776810854100e-02,-6.528550242950989513e-02,-8.837844744483108750e-02,1.947748475248246847e-02,-1.708432304050058054e-02,-3.383283518089037767e-02,-3.823306065069000115e-02,1.266438316711475734e-02,-2.007933481370153747e-02,-4.040738846163269976e-02,3.833384552924076760e-02,9.954873897486669551e-03,-1.456664737469817901e-02,-9.343394007025987089e-03,2.819933791656637975e-02,7.685393728587532058e-02,-3.202821183867859273e-02,-7.916524987608907285e-03,5.084236059334691638e-02,2.463101661512238222e-02,1.228322310306617128e-02,-7.729077514882685962e-02,5.926067746843730749e-02,7.575117023205980848e-02,3.730790244904598485e-02,4.278794107675616687e-02,-6.579632315431435674e-02,-3.171591863322725802e-02,-5.320776215749004751e-02,-1.003063730653417224e-01,-6.814521166101715488e-02,-9.786540019946314561e-02,-3.866800622734830467e-02,-4.663334002764610992e-02,-3.307405623171052328e-02,-2.104585475077453902e-02,-1.093408483011245984e-02,1.400267425902551469e-03,-2.470271119595087925e-02,2.176581460852730241e-04,-3.056133905076200211e-02,2.027187682295387983e-02,3.368311108053754360e-02,-3.423686143563813011e-02,-3.321331611023532748e-02,-7.799550414157316314e-02,1.582186724093682939e-02,-4.452320415653014674e-02,-6.042139175116122835e-02,-3.404166008196749665e-02,1.199296228539147718e-02,9.983856920127560236e-03,5.580191084143278080e-02,3.177734129566590210e-02,-1.727050375018148246e-02,-5.165913097004038584e-02,-4.017977959163562124e-02,-1.264995579058584424e-02,-6.570708689348203624e-02,-5.164732975187013436e-02,-8.264079176795981196e-02,-1.107274231014239024e-01,-6.754577656360802318e-02,-5.907069664756575689e-02,-3.796499759214651271e-02,-4.546185345016796886e-02,-5.903606752884603230e-03,-1.267111916385540299e-02,2.494883681698603986e-02,-1.000973795282911194e-02,3.644997498086158944e-02,-4.514207442337338921e-02,2.349610544103399729e-02,-7.268680683298281431e-02,2.932841711346417801e-02,-2.899177795336077904e-02,2.882841073233657556e-02,2.676708430770583999e-02,-1.813014574305906249e-02,8.998217133296270917e-03,3.291903102077101129e-02,5.207034910347500822e-02,6.029401652873665751e-02,1.392642101344654729e-02,-3.610686149275954548e-02,2.318729713705054013e-02,-3.835098887334795204e-02,-2.789710230904719757e-02,-4.852106901469495359e-02,-1.375971970401074218e-01,-5.233210288171284696e-02,-3.710764681932970238e-02,-5.488494036638020754e-03,-4.430786615955166485e-02,-1.219675221166892191e-02,2.204618150175634284e-02,2.428854713667864471e-02,2.983748183503460993e-02,4.386894011427161510e-02,-1.323979235456583005e-02,9.047516754636179825e-02,8.591220729547185964e-02,1.154181303554170646e-02,-6.093040040647425964e-02,7.208854057754585098e-02,-9.191721255932011614e-02,-5.670417559443964757e-03,9.730307751238385407e-04,2.324597690837691688e-02,-2.593125139056964845e-02,-4.912422739529168775e-02,8.979177620694357709e-02,-2.886148061119735153e-02,-2.501200136492107845e-02,-4.185588129909804250e-02,-2.792627112141795112e-02,-1.136852942021962382e-01,-1.801642034036661233e-01,-8.955105872219820684e-02,-1.622086501224626401e-02,-1.045070470281051905e-01,3.898699165933634282e-03,-4.777376770167100772e-02,-7.838094722976922391e-02,-5.111073478574960742e-03,-7.008365859343503382e-04,1.314513727849614920e-02,-6.787143685582182860e-03,-2.882692917845404088e-02,1.380510302082206195e-02,6.917046458221801086e-02,2.211377942580443345e-02,1.956884348846027813e-02,2.304029313088965317e-02,2.853992666560558993e-03,5.984779133573244446e-03,-1.623761983121124047e-02,5.327802124510670756e-02,5.554814841423190604e-03,7.645233122231422096e-02,-1.829698334128290055e-02,-4.754932047974856635e-02,-3.384570516662983863e-02,-1.155410324364962577e-01,1.046186639372574667e-02,-1.658269871504764945e-02,-6.140761273264226661e-02,-3.223153941619959911e-02,-1.143369928523797346e-01,-3.984356286020824395e-02,-4.607608140402163349e-02,-9.596372882726553893e-03,-5.375121858023029775e-02,2.327451411283773877e-03,2.401848388991156130e-02,1.076206859000928065e-02,3.185390806909445260e-02,-2.243041835102577847e-02,2.873716967384833121e-02,6.633350009273748793e-02,2.723215305282437187e-02,5.023142225683241424e-02,2.004386187339356196e-02,7.840972385947534221e-03,-7.334032780192496423e-04,3.871808103326417755e-02,-9.737782103810082440e-03,3.034969112184840619e-03,3.299213314173886358e-02,3.226681945324175182e-02,7.132353722432925244e-03,4.286093560601529975e-03,4.948649669404509011e-02,-3.140743498827801208e-03,1.067814257769308245e-02,1.276089097461519540e-03,-2.222485876226742291e-02,-3.592363440758385151e-02,6.501368127734598323e-02,5.689093661984199329e-02,8.144939991031946089e-03,-3.895158265276531945e-02,-2.547131561103220879e-02,5.082040040426716310e-02,-2.998702730692337157e-02,-1.703753823662565448e-02,-1.765960168379789724e-02,-5.669633800931253922e-03,-2.010706445665387532e-02,-3.685233179641651119e-02,-4.925277547044560472e-02,6.308965561304847799e-03,2.498861766432369444e-02,1.023592333344685006e-04,6.530182235000217029e-03,-2.655459282595603460e-02,3.370999438939684123e-02,4.057351206683738887e-02,3.643338999231224978e-02,6.743867677075046640e-02,9.567162648364826993e-02,5.472291484024299074e-02,-1.924841889995235547e-02,4.599437415238934873e-02,-4.426100410661948543e-03,9.190526020099333560e-02,2.923118788022001716e-02,-4.599175708549471664e-02,4.208575682377207333e-02,-1.009652489396355712e-01,-3.041444599980708957e-02,-2.898037056880829743e-02,-2.062952858903449940e-02,2.869301412123244702e-02,-5.807572215796387265e-03,-1.282343570219782181e-02,-1.073324586226806314e-02,7.006085008373397205e-02,6.527220030801275837e-03,3.125656851840740574e-02,-4.103485740206488930e-02,2.460723870141382635e-02,8.326574997569039308e-03,6.863098190583753755e-02,-3.589112548287991949e-02,8.817992386111627237e-03,1.219175724295998992e-02,-2.094929014810576959e-02,1.502618816872711670e-02,-7.928539234073349318e-03,4.540675551869838289e-02,2.016587116056739806e-02,-5.718456086419922667e-03,4.283449026728731318e-02,-3.077077782736745322e-03,-2.073885624422958790e-02,-3.115705667173695927e-04
2.715649229188148508e-02,-5.289297646806932762e-02,-1.779363907277821399e-02,-8.825907630790389129e-04,5.461781768534741677e-03,1.197650449790648060e-02,-2.238190470925684877e-02,-1.049633819857015010e-01,1.813496540621894679e-02,-2.776699952119249942e-02,4.219985961196664331e-02,9.609474492536429838e-03,3.463891519244161055e-02,4.974923186792781782e-02,3.175592371180695900e-02,-1.215306133699587624e-03,3.016403728059915273e-02,6.748708917719327578e-03,4.726468620176952490e-02,2.137410550777081239e-02,4.475874027588376373e-03,4.917421124351595285e-02,1.089094502555357051e-02,3.872011856454615070e-02,-6.162102718739577434e-03,2.720832242089261943e-02,-1.491789834845146882e-03,1.891121810482807378e-02,-3.595364079726406925e-02,-1.941375633503485479e-02,-2.708231120547074933e-02,-1.738823151312993143e-02,-8.642313769788279552e-04,-5.371035064666158237e-02,2.775997402430268116e-02,-2.984093993366607189e-02,6.240613840467851238e-04,-1.222123643013786620e-02,-9.527595655352212589e-02,-2.521189182362597748e-03,1.202776135891071158e-02,5.339919877220105499e-02,4.353857774947286763e-02,-1.154730560341880180e-02,2.960644894734905733e-02,-9.883227943979860334e-05,3.064314404046185325e-02,-5.505547973634571102e-02,3.581391411391156299e-02,3.232676600613011708e-02,2.873561275904301313e-02,3.106128370402631150e-02,9.380673364417497009e-03,-3.459281785534244064e-02,-9.300458032869758293e-03,8.789920436597289249e-03,-6.877598233868829902e-02,-2.648049173542350171e-02,-4.078827627581963627e-02,2.610879490852071466e-02,2.876140669504896608e-02,-2.428374655360717241e-02,-1.715881482314091794e-02,-8.035796035044795839e-04,-1.016001989512562396e-02,1.408058833504115086e-02,4.637127946230525793e-03,-1.324743469660184282e-02,-1.122938056955009173e-01,-9.247608997991862978e-02,-2.654747890247111455e-02,-5.195751437431150865e-02,-3.246789300014068375e-02,-1.064297576607944537e-02,-1.317305616474739871e-01,-3.587822140044663599e-02,-6.763589072218550990e-02,-3.444810911535196862e-02,-6.987178652886813501e-02,2.594589238585061353e-02,-3.488408000216404459e-02,7.684358577524568606e-03,-3.252510146182942957e-02,-5.970174306316896468e-02,-1.392010784643745586e-02,6.892379681718133200e-02,5.850873801738317587e-03,-2.901772911864026333e-02,3.824084872081336128e-02,-4.866712262224605345e-03,-6.966124114328035508e-03,-1.242605873509713445e-02,2.069732013855324002e-02,1.641559016399137590e-03,-2.878839875866281636e-02,3.948926127055267521e-02,-1.290158605205507254e-03,-4.246990814520049118e-02,-5.407884847818064666e-02,-6.253628835168954792e-02,-4.081052962610406953e-02,-9.970935924522009164e-02,-2.294225123922968151e-02,-6.553089057717760568e-02,1.963844173610077449e-03,-3.621717780317354474e-02,-9.630335673999164056e-03,-2.745693768398466063e-04,2.870653192772370729e-02,5.125729314142304927e-02,-4.890149079612034905e-02,1.094183998571200689e-02,4.289017949521586361e-03,-1.914002532121030289e-02,-2.261879652355889073e-02,4.061928918561932139e-02,-3.695398489726829661e-02,4.393898591429211409e-02,5.400938421433787440e-02,6.026966246045142167e-02,3.563791814213751463e-02,8.783193704312339256e-02,6.187848178491273804e-02,4.961823645577575354e-02,1.515717337890303820e-03,2.781296854801331223e-02,2.021827868761816652e-02,-3.335094055070136898e-02,-1.299825515024203258e-02,7.208736460075840236e-02,4.396062118118310852e-02,-1.951134664362493693e-02,5.060528388868611865e-02,-3.815203795005952386e-02,-2.196269752255997770e-02,-1.186149111069128709e-01,-3.876062130166606223e-02,5.658217150721255723e-02,1.332482306285898838e-02,3.108243061435607760e-02,-5.478521132844340474e-02,4.325001919149753897e-03,-3.975392708792038765e-02,7.473208869714313869e-03,-3.452928987854278486e-02,8.344745216166624124e-02,5.533475066790265878e-02,1.124612921911092439e-02,1.059169901894631421e-01,5.127354019945737362e-02,5.375216695165244314e-03,2.159059370810243947e-02,1.403869125980640974e-02,3.111171953090624553e-02,2.157616694397217205e-02,6.319145540377245351e-02,1.952134442492405031e-02,-3.022192679840801643e-02,-4.040318961491307093e-02,-5.037886131272045764e-02,-4.006674688701217235e-02,-3.686357460829108035e-02,2.298718081294214358e-02,5.361322035145837592e-03,2.337135870974241247e-02,-6.218850014854254704e-02,-5.247713828208626363e-02,-1.060597051645482264e-02,7.827775252174369591e-02,-2.282043399369930101e-02,-4.785298917264878098e-03,1.940509235997197809e-02,-1.861251321474947972e-03,1.420366730072976542e-02,3.393347975701672958e-02,-2.670313764425810525e-03,5.484519172647535357e-03,8.160102670117509727e-02,-3.537852038061004619e-03,2.408706415375192270e-02,3.334000578048620413e-03,1.510940494688218366e-02,-2.575677207364688096e-03,6.120021277138888716e-02,2.667296703189881227e-02,-2.840867284921131872e-02,-6.820517264962007442e-02,1.797039340260612669e-02,1.085202945701354595e-02,1.337652380435404992e-02,-5.204907258873641557e-02,-3.954599183757481762e-02,-4.784316859090101404e-02,-2.694950576875345186e-02,-2.773237035692610597e-02,-3.381306003613529509e-02,-4.641154908395508753e-03,-7.111410867813953984e-02,-9.919206432615203066e-04,8.168231588481811301e-02,4.864081852384641302e-02,2.526025312655973826e-02,2.417310263654968289e-02,8.598724034913914072e-02,8.142508718071392315e-02,4.606051806005274224e-02,6.173437711916848758e-03,1.042936077794222594e-01,-2.095799221381513394e-02,2.592547261853172386e-02,3.689846600290301593e-02,3.212606779623274761e-02,1.648549621059646007e-03,1.352893091910879406e-02,-1.098246462025297306e-02,-5.782450879899335427e-02,-4.998671234259339374e-02,-2.781259824162351981e-03,1.858127629098184005e-02,-5.680167526401752598e-02,-1.569966655690400656e-02,5.431405147954614793e-02,3.653373130461440819e-03,-2.733065582908734623e-02,-3.972898096263205447e-02,1.918646365304824131e-02,-8.406569249003671002e-03,-6.619738837247568508e-02,-2.327225582522732955e-02,5.602359457464808207e-02,7.973862180272042743e-02,6.973183241762115347e-02,9.881538262805877881e-02,-1.318717553469560266e-02,1.759325575337496173e-02,5.090776717221507514e-02,3.418686077172675836e-02,-1.022759043092524162e-02,1.139032027255066151e-02,3.766691031737413441e-03,-2.502706748724654526e-02,-2.586235066252002071e-02,1.947208620860082368e-02,1.300883023736982939e-02,-9.482229831222505761e-03,-5.470382882152478865e-02,-4.326104115524100069e-02,-3.811289873231708120e-02,-1.397487617853739516e-03,-4.246001734650981657e-02,3.287105285220112000e-02,2.693043031165402723e-02,4.278765398022811584e-02,-2.980957044748720058e-02,-8.327737760898970554e-03,-1.789560460745614773e-03,1.493976897294676739e-02,1.322376672850268109e-01,3.887800361007339583e-02,8.064666341606761824e-03,1.639409422490393023e-02,1.123823619238929067e-02,1.271917211528158717e-04,-1.221560398666053995e-02,2.720827586284613533e-02,3.945693841306654320e-02,-1.250530379517851565e-02,5.306237847850823336e-02,1.035190933746163167e-01,7.472452062762317826e-02,3.660485369203998751e-02,5.966359125889857812e-02,5.920515118398292365e-02,7.181257218267457845e-03,-3.973261684241221475e-02,-8.472587171899151337e-02,-4.932331328957406669e-02,-1.270716807872667442e-01,-5.707132344345849234e-02,-5.735536458607818668e-03,-1.057760864088600622e-02,2.466948668596556302e-02,1.588573024856741473e-03,6.721474328212785621e-02,9.810019344850819459e-03,4.735042496192599926e-02,6.144632049851088407e-02,7.275665246586759949e-02,4.738383196552863053e-02,-4.424374307289395680e-02,4.581937801666950000e-02,4.143359297366974725e-02,2.543742192382643548e-03,2.913807920769955623e-02,-9.754055887380624901e-02,-2.193613601431546392e-02,-2.990609784315904213e-02,5.842065964627505409e-02,6.347285737950346396e-02,8.296810706560078796e-02,6.830401864540133761e-02,2.887206556735377391e-02,-5.029979627959033691e-04,-1.030245182469283205e-01,-1.349887851842264397e-01,-8.341021406470876254e-02,1.858509766350050288e-02,-7.321256591830362093e-02,-5.461377201569161260e-02,-7.820150067973748176e-02,1.107380835758191989e-02,9.395828100223202473e-02,1.905894801880901948e-02,2.113765963338586906e-01,6.018571860933810691e-04,-3.476194739205046985e-02,1.876973651334024051e-02,5.171123207324732074e-02,1.231870069383747199e-02,3.221607951430014664e-03,-6.054079800225056762e-02,-1.214369829810158646e-01,-1.153418262736334299e-01,-4.108753914720052192e-02,6.034117365659946719e-02,1.125562856944155830e-02,-7.166513673298537807e-03,5.972941140425371692e-02,1.858549284061356693e-02,6.805384975300983463e-02,-6.960423167573762462e-03,-9.224809398055996978e-02,-8.733145985917847853e-02,-4.037047335091928368e-02,-2.904741011279807217e-02,-7.133935692833433262e-02,4.898494031958364539e-03,1.158381083066041192e-02,6.273719994094346941e-02,6.577310623258067479e-02,6.645177569367807791e-02,5.295470470465307028e-02,-8.315084034108234656e-02,-5.074993492773536424e-02,6.630400938465279281e-03,3.225255057013032972e-02,-5.460812437954869203e-02,4.525558359618403470e-02,-9.474467536424435732e-02,-1.297567334663608796e-01,-1.036695304679156049e-01,-1.246835093484159607e-02,5.991845577178171040e-02,9.463661891267988180e-02,3.946692310988465097e-02,5.984312120613807795e-02,6.196169983322953601e-02,-2.412287669212781482e-02,-4.154280314011301461e-02,-9.384588288567864700e-02,-7.999686740613951019e-02,1.288511974484469157e-02,-8.690927171362532871e-03,-1.508913416994933296e-02,-3.040930576967680252e-02,-4.822850479642712407e-02,4.734846567915639015e-02,2.447344051498195547e-02,1.713613831718683797e-02,4.767414895663871222e-02,-4.395167526637458466e-02,-5.782736465312178671e-03,-3.216115990892182835e-02,-2.800681995093364657e-02,3.921652574679607151e-02,-5.311995105743811622e-04,-1.158953914860547663e-01,-4.174338614029717703e-02,-9.988552738278894116e-02,6.673314262070778602e-02,8.176094043087972496e-02,1.248273305229095631e-01,-1.185032832191235553e-04,6.742246905770174492e-02,4.765942471797714186e-02,-1.347941106123334842e-02,-5.390555664283207954e-02,-9.949855841892951691e-02,-3.395739463989277951e-02,-2.978293213928278824e-02,1.246979102007270482e-02,-2.617376425533859616e-02,-1.451787187021197356e-02,-2.534367950605737746e-02,-7.110739789830875218e-04,2.852281500399930433e-02,4.108672066907147896e-02,4.262091864014381365e-02,8.387156109867029141e-02,4.186119297713054854e-02,-2.382101458103306341e-02,-1.171462106818336795e-04,-5.806740843645018767e-03,4.014393982194586902e-02,4.910380936256670409e-02,-4.487089928950883932e-02,-8.609727642508703538e-02,-1.864495529103571761e-02,2.719547939760780936e-02,4.983506024267247286e-02,5.564578185663135446e-02,1.205072445908455386e-01,5.915032987387377345e-02,-3.480760246856279966e-02,-1.563630878174917735e-02,-1.093605256578107088e-01,1.250330341817416577e-02,3.248441617992391117e-02,-5.363391243030039141e-03,5.746685250821943064e-02,-1.271885563505872722e-02,6.433910875898424253e-02,-6.498155613410216969e-02,1.208302613607255445e-02,4.146287615562653517e-02,1.192208786592522246e-01,5.628068552452177714e-02,3.846065273184187672e-02,1.692240249387899284e-02,-5.391549725876007559e-02,-5.243547312000124833e-02,3.969128732562757916e-02,-9.633574493569604241e-03,-1.060395576952090080e-01,-3.306077728588079079e-02,1.110597108770737945e-01,2.136827049473305484e-02,1.310822801481183186e-01,6.721730781598733717e-02,7.722177698110571642e-02,3.238362052520376774e-03,-6.149845782957188978e-02,-6.091563382324920867e-02,1.157109276137639406e-02,6.116261511897668791e-03,-6.638193728020508159e-03,4.253072092457584746e-02,-4.340060673684414255e-02,-5.499419537334661974e-04,-1.353406538671747886e-02,-7.084199946534747161e-02,4.871683370497076337e-02,8.704054481648589026e-02,-4.414949179689636911e-03,6.444465540960597760e-02,3.682076826886356014e-02,1.232811999101969536e-02,5.902872858632541783e-03,6.130291042282037632e-03,-1.824589529180346836e-02,-3.411354648627383263e-03,3.367380338086483488e-02,2.662731841797775362e-03,7.616790316616089962e-02,3.935611819045505000e-02,9.933600052570462635e-02,9.120007575379265874e-02,-2.622876719166046186e-02,3.023076643297897478e-02,-7.603474808720313283e-02,-1.263527847327231834e-01,-1.034505842175636597e-01,-6.850114114444925961e-02,8.366996839900921190e-02,-3.728733508037254674e-02,2.155917493064443344e-02,1.282447747122058244e-02,2.447886124348453655e-03,2.220222785088471831e-02,-8.286093313563749202e-03,6.000262284377750471e-02,2.989365772498804585e-02,2.403556969916112451e-02,2.855687232299815650e-02,2.515290140081724232e-02,-3.897749288613305829e-03,-4.645998049329321672e-02,-2.359873365242890972e-02,1.154172750446251644e-01,9.394725730518627138e-02,1.083339458992857857e-01,1.298440733784687329e-01,1.233861078844387810e-01,1.102054741054830783e-01,3.385296149553220640e-02,-1.853303566017170355e-03,-3.326739268063442362e-02,-6.732665568165403791e-02,-8.015985166378108984e-02,-6.912549556533209572e-02,1.929247524572338945e-02,4.360728767049492499e-02,5.707918808579143938e-03,2.547936840704759578e-02,-1.439343560458126482e-02,-2.703802241957974778e-02,-4.150336199359622863e-02,-1.471182975878342243e-02,4.921153482728297252e-02,6.462577027544590472e-03,4.521856676201906761e-02,9.734419369899849350e-02,-2.847086645239107691e-02,-1.128351325170736941e-01,-5.570283281380693230e-02,-4.243447030387620389e-02,8.220915868804563875e-02,1.541430582970174934e-01,9.524753793400299318e-02,3.385963445553494267e-02,5.631416217727724938e-02,-3.647457234702979056e-02,-2.094145649404396264e-02,-3.444729981824523612e-02,1.882234457301346781e-02,-1.087400098272297763e-02,2.777096558863840700e-02,6.629367931111969370e-02,7.034190162578571326e-02,3.570366843023148329e-02,-6.022780890548817823e-02,-1.475448614367361883e-02,2.187773300252870154e-04,9.001922560817797458e-03,-4.557831949359256174e-02,-1.204732206543112326e-02,-6.962526960448918445e-02,2.207177086052256390e-02,-9.080508505566771416e-02,-5.970248681721879169e-02,-1.269821806208293845e-02,-1.076178012904567688e-01,-1.231127832747299228e-01,-4.305731664250354168e-02,-1.827756281226706244e-03,2.149940407074265713e-03,4.395711796790249121e-02,-3.150529475113936217e-02,-6.807690653816740253e-03,-1.287727453817324730e-01,-1.080233482950691964e-01,-1.416041038121672833e-02,-2.334950485083318178e-02,-2.092119976974417955e-02,-2.162552886017362827e-02,6.174919001476472658e-02,6.127547489045643073e-03,1.878281230358495868e-02,4.345022328454956756e-02,-6.080769510697662736e-03,-1.291714388977612156e-02,3.242122780666225300e-03,8.045026978192761080e-02,-3.752002948530500093e-02,-2.268923358885347949e-02,-2.741312352258995499e-02,-5.874423350913041825e-02,2.341373296856617825e-02,-2.075768876611095229e-02,-4.203195337561103917e-02,-6.236288691253320804e-02,-1.327349411018360348e-01,-9.887492278538963231e-02,-7.794363563257006300e-02,-9.849837337237357660e-02,-1.150682280183733530e-01,-4.949420750666842783e-02,-1.248084070809203361e-01,-8.686293591016690241e-02,-1.637263821908678182e-02,3.820210063811911583e-02,-7.537948302254769695e-02,3.924807264167589488e-02,1.753293189994844375e-02,3.129469978198962110e-02,1.852922998032896030e-03,1.438572919262166329e-02,1.820240697510702374e-02,-4.103368551225577976e-02,-2.982488908745804801e-02,-6.978019408125993306e-02,-2.514672298144750642e-02,-2.443146797064525699e-02,-1.937253737025730269e-02,-6.086968107897838820e-02,3.343422236552202886e-02,-4.872076410039440780e-02,1.705807907348769539e-02,-3.415882703919777968e-02,-7.643983246257335384e-02,-1.443823327161767034e-01,-1.514797926465152877e-01,-4.776160168901143199e-02,-2.746073505182396179e-02,-5.859232497766445925e-05,-9.745891420253557924e-02,-9.160139506526798758e-02,-5.076624801462530784e-02,-4.952961689086795433e-02,1.043208594519297490e-02,6.552436465504245418e-03,1.759114501878024373e-02,8.138814762395597813e-02,-4.613491346919090103e-02,3.214627029898022015e-02,8.960246528907117591e-02,-2.386165233764561688e-02,1.655303316487814758e-02,4.091550476321257485e-02,-3.154914837983729264e-02,-2.189366547083257397e-02,-6.365551810651526310e-02,-3.260213069259946389e-02,-7.161905609143912055e-02,-1.551978417784538426e-02,-6.534204322807882215e-02,4.438286333781757062e-03,-1.590119282407574317e-02,-5.426262269744457079e-02,-1.050520626482853437e-01,-2.109732554248276715e-02,-5.903064747767922116e-02,8.173411159689589894e-03,-8.957766823606659601e-02,-3.288188483385735827e-02,-1.091718442944703514e-02,4.601795510682835100e-02,2.479129796583367726e-02,9.305300395881986597e-02,3.746476572645388026e-02,1.449307144621808999e-02,2.242101852937065931e-02,-2.835394797493114710e-03,-5.679888764997989559e-03,-3.616526533860764392e-02,-3.793413124815282755e-02,1.002908325498752355e-02,-1.268967145791836081e-02,-4.097687292369490974e-02,-7.182536091557305269e-02,2.565524320520291141e-02,-5.093353682019664125e-02,-7.719921487365896673e-02,-1.014038750432799812e-01,-5.417810694161437346e-02,1.822583538550099063e-03,-7.805093305412799665e-02,-9.928669726781365334e-02,-1.601933228720378022e-01,-1.553046760882114963e-01,-1.317543826581569488e-01,-9.596135945800784994e-02,9.604426248812318948e-03,4.650444060367944776e-02,1.129831349608618613e-01,1.269859296983221197e-01,1.223677711575931609e-01,6.775412106630133990e-02,3.647574733338844076e-04,-1.428190659430914576e-02,2.745685207877372747e-03,-1.354552000264953003e-02,-5.750137945968213093e-02,-3.707757167432912913e-04,-4.193684590917599181e-02,-1.292252351476952665e-01,-4.853629056316453166e-02,-1.421874494454659910e-02,4.644779481583417163e-03,-4.291772086009672943e-02,-5.091250841763859947e-02,-9.945719563436190847e-02,-8.190675279584710977e-02,3.108124185675160273e-02,-6.553101315031051310e-02,2.524594179010116943e-02,2.068201940730890736e-03,-7.231839215743769700e-02,-4.165964673298643700e-02,7.248124101151656729e-02,1.062023595817120081e-01,1.191723212705048524e-01,9.053168209664592958e-02,4.782920654754665990e-02,1.622672235260239071e-02,3.891494306303758949e-02,3.177982000534564783e-02,-2.681238573969521241e-02,-6.050259565913830573e-02,4.654236852050110118e-02,1.031169937384588189e-02,-2.065368186242950294e-02,2.094734905453152999e-03,-8.483226421771497897e-03,1.145630711054807932e-01,1.554693177474177415e-02,3.972808693578280120e-02,-1.604282870868157032e-02,5.001436703167538855e-02,4.376020845575279150e-02,-1.768099120891446219e-02,6.266947741853495790e-02,6.167198754952983586e-02,1.170477579177150729e-01,1.512759337415491567e-01,6.238979363503477371e-02,1.160404768765765926e-01,9.027378799269376863e-02,1.298386523679136151e-01,1.025380021072368371e-02,1.556240175220045038e-03,2.025035447079862744e-02,-1.243292210819791320e-02,8.210720926352398086e-02,-1.876669385107152628e-03,1.954976658591242068e-03,-2.270689769064640831e-02,-3.106840882214938204e-02,4.765044274343869374e-02,4.750404959377458290e-03,2.561751533101762346e-02,5.170399097974437419e-02,4.633704564743563320e-02,-2.823033842266204144e-02,1.298331165982453267e-02,1.628776157319511766e-02,5.993397715338390913e-02,4.271658732402594527e-02,4.919692576104518766e-02,5.693058901576896445e-03,6.251229759963237986e-02,1.419376508959357408e-01,4.210202598600248924e-02,7.509777459345916284e-02,3.434412637129661411e-02,-2.146110734067483133e-03,4.766506422094034245e-02,3.941520942250380938e-02,-4.388407947311064039e-02,1.133924616032368909e-02,-1.322201048128845112e-02,-1.244802736335961363e-02,-7.792698931838465577e-03,-3.173201826222115957e-03,-1.210400936446792176e-02,-2.217584880983901677e-02,-2.884943985619002962e-02,1.635678432672692598e-02,3.468748779083789119e-02,2.646982629371649048e-02,-2.071197777012562247e-02,3.255156776727409496e-02,-5.717482221032465367e-02,-3.040721976242930988e-02,-2.298190554925933285e-02,9.231538888019297229e-02,1.679605125027774926e-02,9.292884262829270714e-02,-7.454788404198585579e-03,1.607401568482222376e-02,1.535553986313209322e-02,-3.929631653083841270e-02,6.355415028540094442e-03,-1.392492959348835303e-02,3.084906219554101395e-02,1.835484018589539357e-02,7.067478961807985294e-02,1.182304359586613951e-02,7.876124622324125191e-02,-3.658864271660003907e-03,5.390375082809664709e-02,-2.435785543187853411e-02,3.439588103027393234e-02,2.751243042007580145e-02
